digraph Tree {
node [shape=box, style="filled, rounded", color="black", fontname=helvetica] ;
edge [fontname=helvetica] ;
0 [label="channelgrouping_Referral <= 1.04\ngini = 0.03\nsamples = 47287\nvalue = [73908, 1092]", fillcolor="#e5833c"] ;
1 [label="hits <= 1.48\ngini = 0.02\nsamples = 40624\nvalue = [63925, 532]", fillcolor="#e5823b"] ;
0 -> 1 [labeldistance=2.5, labelangle=45, headlabel="True"] ;
2 [label="sessionqualitydim <= 3.97\ngini = 0.0\nsamples = 38671\nvalue = [61261, 97]", fillcolor="#e58139"] ;
1 -> 2 ;
3 [label="hits <= 0.99\ngini = 0.0\nsamples = 38632\nvalue = [61202, 86]", fillcolor="#e58139"] ;
2 -> 3 ;
4 [label="hits <= 0.74\ngini = 0.0\nsamples = 37744\nvalue = [59845, 30]", fillcolor="#e58139"] ;
3 -> 4 ;
5 [label="operatingsystem_Windows <= 0.35\ngini = 0.0\nsamples = 37028\nvalue = [58733, 14]", fillcolor="#e58139"] ;
4 -> 5 ;
6 [label="continent_Americas <= -0.1\ngini = 0.0\nsamples = 23874\nvalue = [37842, 12]", fillcolor="#e58139"] ;
5 -> 6 ;
7 [label="gini = 0.0\nsamples = 10323\nvalue = [16441, 0]", fillcolor="#e58139"] ;
6 -> 7 ;
8 [label="visitstarttime <= -1.65\ngini = 0.0\nsamples = 13551\nvalue = [21401, 12]", fillcolor="#e58139"] ;
6 -> 8 ;
9 [label="operatingsystem_Linux <= 2.15\ngini = 0.01\nsamples = 480\nvalue = [761, 4]", fillcolor="#e5823a"] ;
8 -> 9 ;
10 [label="source_(direct) <= 0.21\ngini = 0.01\nsamples = 435\nvalue = [679, 4]", fillcolor="#e5823a"] ;
9 -> 10 ;
11 [label="visitnumber <= 0.16\ngini = 0.02\nsamples = 276\nvalue = [441, 4]", fillcolor="#e5823b"] ;
10 -> 11 ;
12 [label="pageviews <= 0.62\ngini = 0.0\nsamples = 260\nvalue = [415, 1]", fillcolor="#e58139"] ;
11 -> 12 ;
13 [label="gini = 0.0\nsamples = 250\nvalue = [402, 0]", fillcolor="#e58139"] ;
12 -> 13 ;
14 [label="browser_Chrome <= -0.48\ngini = 0.13\nsamples = 10\nvalue = [13, 1]", fillcolor="#e78b48"] ;
12 -> 14 ;
15 [label="pageviews <= 0.87\ngini = 0.38\nsamples = 3\nvalue = [3, 1]", fillcolor="#eeab7b"] ;
14 -> 15 ;
16 [label="visitstarttime <= -1.69\ngini = 0.5\nsamples = 2\nvalue = [1, 1]", fillcolor="#ffffff"] ;
15 -> 16 ;
17 [label="gini = 0.0\nsamples = 1\nvalue = [1, 0]", fillcolor="#e58139"] ;
16 -> 17 ;
18 [label="gini = 0.0\nsamples = 1\nvalue = [0, 1]", fillcolor="#399de5"] ;
16 -> 18 ;
19 [label="gini = 0.0\nsamples = 1\nvalue = [2, 0]", fillcolor="#e58139"] ;
15 -> 19 ;
20 [label="gini = 0.0\nsamples = 7\nvalue = [10, 0]", fillcolor="#e58139"] ;
14 -> 20 ;
21 [label="bounces <= 0.0\ngini = 0.19\nsamples = 16\nvalue = [26, 3]", fillcolor="#e89050"] ;
11 -> 21 ;
22 [label="source_google <= 0.11\ngini = 0.42\nsamples = 6\nvalue = [7, 3]", fillcolor="#f0b78e"] ;
21 -> 22 ;
23 [label="gini = 0.0\nsamples = 1\nvalue = [0, 3]", fillcolor="#399de5"] ;
22 -> 23 ;
24 [label="gini = 0.0\nsamples = 5\nvalue = [7, 0]", fillcolor="#e58139"] ;
22 -> 24 ;
25 [label="gini = 0.0\nsamples = 10\nvalue = [19, 0]", fillcolor="#e58139"] ;
21 -> 25 ;
26 [label="gini = 0.0\nsamples = 159\nvalue = [238, 0]", fillcolor="#e58139"] ;
10 -> 26 ;
27 [label="gini = 0.0\nsamples = 45\nvalue = [82, 0]", fillcolor="#e58139"] ;
9 -> 27 ;
28 [label="source_t.co <= 10.34\ngini = 0.0\nsamples = 13071\nvalue = [20640, 8]", fillcolor="#e58139"] ;
8 -> 28 ;
29 [label="operatingsystem_Android <= 0.86\ngini = 0.0\nsamples = 13036\nvalue = [20586, 8]", fillcolor="#e58139"] ;
28 -> 29 ;
30 [label="devicecategory_desktop <= -0.33\ngini = 0.0\nsamples = 9663\nvalue = [15335, 8]", fillcolor="#e58139"] ;
29 -> 30 ;
31 [label="gini = 0.0\nsamples = 4350\nvalue = [6981, 0]", fillcolor="#e58139"] ;
30 -> 31 ;
32 [label="newvisits <= -0.58\ngini = 0.0\nsamples = 5313\nvalue = [8354, 8]", fillcolor="#e58139"] ;
30 -> 32 ;
33 [label="operatingsystem_Chrome OS <= 2.44\ngini = 0.0\nsamples = 1646\nvalue = [2579, 6]", fillcolor="#e58139"] ;
32 -> 33 ;
34 [label="bounces <= 0.0\ngini = 0.01\nsamples = 1474\nvalue = [2318, 6]", fillcolor="#e5813a"] ;
33 -> 34 ;
35 [label="visitstarttime <= -0.41\ngini = 0.01\nsamples = 775\nvalue = [1219, 6]", fillcolor="#e5823a"] ;
34 -> 35 ;
36 [label="channelgrouping_Affiliates <= 3.26\ngini = 0.02\nsamples = 310\nvalue = [495, 4]", fillcolor="#e5823b"] ;
35 -> 36 ;
37 [label="source_(direct) <= 0.21\ngini = 0.02\nsamples = 306\nvalue = [488, 4]", fillcolor="#e5823b"] ;
36 -> 37 ;
38 [label="gini = 0.0\nsamples = 220\nvalue = [361, 0]", fillcolor="#e58139"] ;
37 -> 38 ;
39 [label="country_Chile <= 10.23\ngini = 0.06\nsamples = 86\nvalue = [127, 4]", fillcolor="#e6853f"] ;
37 -> 39 ;
40 [label="visitid <= -0.41\ngini = 0.06\nsamples = 85\nvalue = [126, 4]", fillcolor="#e6853f"] ;
39 -> 40 ;
41 [label="hits <= 0.5\ngini = 0.02\nsamples = 84\nvalue = [126, 1]", fillcolor="#e5823b"] ;
40 -> 41 ;
42 [label="gini = 0.0\nsamples = 75\nvalue = [118, 0]", fillcolor="#e58139"] ;
41 -> 42 ;
43 [label="visitnumber <= 0.33\ngini = 0.2\nsamples = 9\nvalue = [8, 1]", fillcolor="#e89152"] ;
41 -> 43 ;
44 [label="country_United States <= 0.06\ngini = 0.38\nsamples = 4\nvalue = [3, 1]", fillcolor="#eeab7b"] ;
43 -> 44 ;
45 [label="gini = 0.0\nsamples = 1\nvalue = [1, 0]", fillcolor="#e58139"] ;
44 -> 45 ;
46 [label="visitid <= -1.37\ngini = 0.44\nsamples = 3\nvalue = [2, 1]", fillcolor="#f2c09c"] ;
44 -> 46 ;
47 [label="gini = 0.0\nsamples = 2\nvalue = [2, 0]", fillcolor="#e58139"] ;
46 -> 47 ;
48 [label="gini = 0.0\nsamples = 1\nvalue = [0, 1]", fillcolor="#399de5"] ;
46 -> 48 ;
49 [label="gini = 0.0\nsamples = 5\nvalue = [5, 0]", fillcolor="#e58139"] ;
43 -> 49 ;
50 [label="gini = 0.0\nsamples = 1\nvalue = [0, 3]", fillcolor="#399de5"] ;
40 -> 50 ;
51 [label="gini = 0.0\nsamples = 1\nvalue = [1, 0]", fillcolor="#e58139"] ;
39 -> 51 ;
52 [label="gini = 0.0\nsamples = 4\nvalue = [7, 0]", fillcolor="#e58139"] ;
36 -> 52 ;
53 [label="country_Canada <= 2.66\ngini = 0.01\nsamples = 465\nvalue = [724, 2]", fillcolor="#e5813a"] ;
35 -> 53 ;
54 [label="pageviews <= 0.62\ngini = 0.01\nsamples = 440\nvalue = [688, 2]", fillcolor="#e5813a"] ;
53 -> 54 ;
55 [label="medium_(none) <= 0.21\ngini = 0.0\nsamples = 408\nvalue = [638, 1]", fillcolor="#e58139"] ;
54 -> 55 ;
56 [label="gini = 0.0\nsamples = 230\nvalue = [365, 0]", fillcolor="#e58139"] ;
55 -> 56 ;
57 [label="country_Brazil <= 4.28\ngini = 0.01\nsamples = 178\nvalue = [273, 1]", fillcolor="#e5813a"] ;
55 -> 57 ;
58 [label="visitid <= 0.65\ngini = 0.01\nsamples = 177\nvalue = [271, 1]", fillcolor="#e5813a"] ;
57 -> 58 ;
59 [label="gini = 0.0\nsamples = 113\nvalue = [170, 0]", fillcolor="#e58139"] ;
58 -> 59 ;
60 [label="pageviews <= -0.21\ngini = 0.02\nsamples = 64\nvalue = [101, 1]", fillcolor="#e5823b"] ;
58 -> 60 ;
61 [label="gini = 0.0\nsamples = 24\nvalue = [40, 0]", fillcolor="#e58139"] ;
60 -> 61 ;
62 [label="operatingsystem_Macintosh <= 0.62\ngini = 0.03\nsamples = 40\nvalue = [61, 1]", fillcolor="#e5833c"] ;
60 -> 62 ;
63 [label="visitnumber <= -0.0\ngini = 0.12\nsamples = 9\nvalue = [14, 1]", fillcolor="#e78a47"] ;
62 -> 63 ;
64 [label="sessionqualitydim <= 0.01\ngini = 0.22\nsamples = 5\nvalue = [7, 1]", fillcolor="#e99355"] ;
63 -> 64 ;
65 [label="gini = 0.0\nsamples = 1\nvalue = [0, 1]", fillcolor="#399de5"] ;
64 -> 65 ;
66 [label="gini = 0.0\nsamples = 4\nvalue = [7, 0]", fillcolor="#e58139"] ;
64 -> 66 ;
67 [label="gini = 0.0\nsamples = 4\nvalue = [7, 0]", fillcolor="#e58139"] ;
63 -> 67 ;
68 [label="gini = 0.0\nsamples = 31\nvalue = [47, 0]", fillcolor="#e58139"] ;
62 -> 68 ;
69 [label="gini = 0.0\nsamples = 1\nvalue = [2, 0]", fillcolor="#e58139"] ;
57 -> 69 ;
70 [label="channelgrouping_Organic Search <= -0.06\ngini = 0.04\nsamples = 32\nvalue = [50, 1]", fillcolor="#e6843d"] ;
54 -> 70 ;
71 [label="gini = 0.0\nsamples = 9\nvalue = [16, 0]", fillcolor="#e58139"] ;
70 -> 71 ;
72 [label="source_google <= 0.11\ngini = 0.06\nsamples = 23\nvalue = [34, 1]", fillcolor="#e6853f"] ;
70 -> 72 ;
73 [label="gini = 0.0\nsamples = 5\nvalue = [7, 0]", fillcolor="#e58139"] ;
72 -> 73 ;
74 [label="hits <= 0.5\ngini = 0.07\nsamples = 18\nvalue = [27, 1]", fillcolor="#e68640"] ;
72 -> 74 ;
75 [label="browser_Safari <= 0.86\ngini = 0.32\nsamples = 5\nvalue = [4, 1]", fillcolor="#eca06a"] ;
74 -> 75 ;
76 [label="gini = 0.0\nsamples = 4\nvalue = [4, 0]", fillcolor="#e58139"] ;
75 -> 76 ;
77 [label="gini = 0.0\nsamples = 1\nvalue = [0, 1]", fillcolor="#399de5"] ;
75 -> 77 ;
78 [label="gini = 0.0\nsamples = 13\nvalue = [23, 0]", fillcolor="#e58139"] ;
74 -> 78 ;
79 [label="gini = 0.0\nsamples = 25\nvalue = [36, 0]", fillcolor="#e58139"] ;
53 -> 79 ;
80 [label="gini = 0.0\nsamples = 699\nvalue = [1099, 0]", fillcolor="#e58139"] ;
34 -> 80 ;
81 [label="gini = 0.0\nsamples = 172\nvalue = [261, 0]", fillcolor="#e58139"] ;
33 -> 81 ;
82 [label="hits <= 0.13\ngini = 0.0\nsamples = 3667\nvalue = [5775, 2]", fillcolor="#e58139"] ;
32 -> 82 ;
83 [label="gini = 0.0\nsamples = 3185\nvalue = [5005, 0]", fillcolor="#e58139"] ;
82 -> 83 ;
84 [label="operatingsystem_Linux <= 2.15\ngini = 0.01\nsamples = 482\nvalue = [770, 2]", fillcolor="#e5813a"] ;
82 -> 84 ;
85 [label="medium_cpc <= 2.98\ngini = 0.01\nsamples = 429\nvalue = [669, 2]", fillcolor="#e5813a"] ;
84 -> 85 ;
86 [label="channelgrouping_Organic Search <= -0.06\ngini = 0.01\nsamples = 404\nvalue = [635, 2]", fillcolor="#e5813a"] ;
85 -> 86 ;
87 [label="visitid <= 0.97\ngini = 0.02\nsamples = 136\nvalue = [210, 2]", fillcolor="#e5823b"] ;
86 -> 87 ;
88 [label="operatingsystem_Macintosh <= 0.62\ngini = 0.01\nsamples = 113\nvalue = [175, 1]", fillcolor="#e5823a"] ;
87 -> 88 ;
89 [label="gini = 0.0\nsamples = 17\nvalue = [31, 0]", fillcolor="#e58139"] ;
88 -> 89 ;
90 [label="visitstarttime <= -0.67\ngini = 0.01\nsamples = 96\nvalue = [144, 1]", fillcolor="#e5823a"] ;
88 -> 90 ;
91 [label="pageviews <= 0.62\ngini = 0.03\nsamples = 43\nvalue = [66, 1]", fillcolor="#e5833c"] ;
90 -> 91 ;
92 [label="gini = 0.0\nsamples = 30\nvalue = [48, 0]", fillcolor="#e58139"] ;
91 -> 92 ;
93 [label="browser_Chrome <= -0.48\ngini = 0.1\nsamples = 13\nvalue = [18, 1]", fillcolor="#e68844"] ;
91 -> 93 ;
94 [label="gini = 0.0\nsamples = 3\nvalue = [6, 0]", fillcolor="#e58139"] ;
93 -> 94 ;
95 [label="visitid <= -0.75\ngini = 0.14\nsamples = 10\nvalue = [12, 1]", fillcolor="#e78c49"] ;
93 -> 95 ;
96 [label="gini = 0.0\nsamples = 9\nvalue = [12, 0]", fillcolor="#e58139"] ;
95 -> 96 ;
97 [label="gini = 0.0\nsamples = 1\nvalue = [0, 1]", fillcolor="#399de5"] ;
95 -> 97 ;
98 [label="gini = 0.0\nsamples = 53\nvalue = [78, 0]", fillcolor="#e58139"] ;
90 -> 98 ;
99 [label="source_youtube.com <= 2.08\ngini = 0.05\nsamples = 23\nvalue = [35, 1]", fillcolor="#e6853f"] ;
87 -> 99 ;
100 [label="country_Canada <= 2.66\ngini = 0.06\nsamples = 21\nvalue = [29, 1]", fillcolor="#e68540"] ;
99 -> 100 ;
101 [label="channelgrouping_Direct <= 0.78\ngini = 0.07\nsamples = 19\nvalue = [26, 1]", fillcolor="#e68641"] ;
100 -> 101 ;
102 [label="gini = 0.0\nsamples = 3\nvalue = [4, 0]", fillcolor="#e58139"] ;
101 -> 102 ;
103 [label="pageviews <= 0.46\ngini = 0.08\nsamples = 16\nvalue = [22, 1]", fillcolor="#e68742"] ;
101 -> 103 ;
104 [label="browser_Chrome <= -0.48\ngini = 0.17\nsamples = 8\nvalue = [10, 1]", fillcolor="#e88e4d"] ;
103 -> 104 ;
105 [label="gini = 0.0\nsamples = 1\nvalue = [1, 0]", fillcolor="#e58139"] ;
104 -> 105 ;
106 [label="visitid <= 0.98\ngini = 0.18\nsamples = 7\nvalue = [9, 1]", fillcolor="#e88f4f"] ;
104 -> 106 ;
107 [label="gini = 0.0\nsamples = 1\nvalue = [0, 1]", fillcolor="#399de5"] ;
106 -> 107 ;
108 [label="gini = 0.0\nsamples = 6\nvalue = [9, 0]", fillcolor="#e58139"] ;
106 -> 108 ;
109 [label="gini = 0.0\nsamples = 8\nvalue = [12, 0]", fillcolor="#e58139"] ;
103 -> 109 ;
110 [label="gini = 0.0\nsamples = 2\nvalue = [3, 0]", fillcolor="#e58139"] ;
100 -> 110 ;
111 [label="gini = 0.0\nsamples = 2\nvalue = [6, 0]", fillcolor="#e58139"] ;
99 -> 111 ;
112 [label="gini = 0.0\nsamples = 268\nvalue = [425, 0]", fillcolor="#e58139"] ;
86 -> 112 ;
113 [label="gini = 0.0\nsamples = 25\nvalue = [34, 0]", fillcolor="#e58139"] ;
85 -> 113 ;
114 [label="gini = 0.0\nsamples = 53\nvalue = [101, 0]", fillcolor="#e58139"] ;
84 -> 114 ;
115 [label="gini = 0.0\nsamples = 3373\nvalue = [5251, 0]", fillcolor="#e58139"] ;
29 -> 115 ;
116 [label="gini = 0.0\nsamples = 35\nvalue = [54, 0]", fillcolor="#e58139"] ;
28 -> 116 ;
117 [label="continent_Americas <= -0.1\ngini = 0.0\nsamples = 13154\nvalue = [20891, 2]", fillcolor="#e58139"] ;
5 -> 117 ;
118 [label="gini = 0.0\nsamples = 8059\nvalue = [12734, 0]", fillcolor="#e58139"] ;
117 -> 118 ;
119 [label="bounces <= 0.0\ngini = 0.0\nsamples = 5095\nvalue = [8157, 2]", fillcolor="#e58139"] ;
117 -> 119 ;
120 [label="pageviews <= 0.12\ngini = 0.0\nsamples = 2590\nvalue = [4131, 2]", fillcolor="#e58139"] ;
119 -> 120 ;
121 [label="gini = 0.0\nsamples = 1846\nvalue = [2929, 0]", fillcolor="#e58139"] ;
120 -> 121 ;
122 [label="hits <= 0.38\ngini = 0.0\nsamples = 744\nvalue = [1202, 2]", fillcolor="#e58139"] ;
120 -> 122 ;
123 [label="medium_(none) <= 0.21\ngini = 0.01\nsamples = 443\nvalue = [731, 2]", fillcolor="#e5813a"] ;
122 -> 123 ;
124 [label="hits <= 0.13\ngini = 0.0\nsamples = 285\nvalue = [478, 1]", fillcolor="#e58139"] ;
123 -> 124 ;
125 [label="visitnumber <= -0.09\ngini = 0.01\nsamples = 105\nvalue = [183, 1]", fillcolor="#e5823a"] ;
124 -> 125 ;
126 [label="gini = 0.0\nsamples = 87\nvalue = [155, 0]", fillcolor="#e58139"] ;
125 -> 126 ;
127 [label="subcontinent_South America <= 2.54\ngini = 0.07\nsamples = 18\nvalue = [28, 1]", fillcolor="#e68640"] ;
125 -> 127 ;
128 [label="channelgrouping_Paid Search <= 2.5\ngini = 0.1\nsamples = 13\nvalue = [18, 1]", fillcolor="#e68844"] ;
127 -> 128 ;
129 [label="medium_organic <= 0.15\ngini = 0.13\nsamples = 11\nvalue = [13, 1]", fillcolor="#e78b48"] ;
128 -> 129 ;
130 [label="gini = 0.0\nsamples = 1\nvalue = [1, 0]", fillcolor="#e58139"] ;
129 -> 130 ;
131 [label="visitid <= -0.78\ngini = 0.14\nsamples = 10\nvalue = [12, 1]", fillcolor="#e78c49"] ;
129 -> 131 ;
132 [label="gini = 0.0\nsamples = 5\nvalue = [6, 0]", fillcolor="#e58139"] ;
131 -> 132 ;
133 [label="visitstarttime <= -0.62\ngini = 0.24\nsamples = 5\nvalue = [6, 1]", fillcolor="#e9965a"] ;
131 -> 133 ;
134 [label="gini = 0.0\nsamples = 1\nvalue = [0, 1]", fillcolor="#399de5"] ;
133 -> 134 ;
135 [label="gini = 0.0\nsamples = 4\nvalue = [6, 0]", fillcolor="#e58139"] ;
133 -> 135 ;
136 [label="gini = 0.0\nsamples = 2\nvalue = [5, 0]", fillcolor="#e58139"] ;
128 -> 136 ;
137 [label="gini = 0.0\nsamples = 5\nvalue = [10, 0]", fillcolor="#e58139"] ;
127 -> 137 ;
138 [label="gini = 0.0\nsamples = 180\nvalue = [295, 0]", fillcolor="#e58139"] ;
124 -> 138 ;
139 [label="country_Chile <= 10.23\ngini = 0.01\nsamples = 158\nvalue = [253, 1]", fillcolor="#e5813a"] ;
123 -> 139 ;
140 [label="country_Other <= 2.01\ngini = 0.01\nsamples = 156\nvalue = [249, 1]", fillcolor="#e5823a"] ;
139 -> 140 ;
141 [label="subcontinent_South America <= 2.54\ngini = 0.01\nsamples = 153\nvalue = [243, 1]", fillcolor="#e5823a"] ;
140 -> 141 ;
142 [label="country_United States <= 0.06\ngini = 0.01\nsamples = 139\nvalue = [219, 1]", fillcolor="#e5823a"] ;
141 -> 142 ;
143 [label="gini = 0.0\nsamples = 15\nvalue = [22, 0]", fillcolor="#e58139"] ;
142 -> 143 ;
144 [label="hits <= 0.25\ngini = 0.01\nsamples = 124\nvalue = [197, 1]", fillcolor="#e5823a"] ;
142 -> 144 ;
145 [label="gini = 0.0\nsamples = 87\nvalue = [148, 0]", fillcolor="#e58139"] ;
144 -> 145 ;
146 [label="visitnumber <= -0.09\ngini = 0.04\nsamples = 37\nvalue = [49, 1]", fillcolor="#e6843d"] ;
144 -> 146 ;
147 [label="browser_Firefox <= 2.35\ngini = 0.06\nsamples = 25\nvalue = [33, 1]", fillcolor="#e6853f"] ;
146 -> 147 ;
148 [label="channelgrouping_Organic Search <= -0.06\ngini = 0.06\nsamples = 23\nvalue = [31, 1]", fillcolor="#e6853f"] ;
147 -> 148 ;
149 [label="browser_Edge <= 4.59\ngini = 0.12\nsamples = 13\nvalue = [14, 1]", fillcolor="#e78a47"] ;
148 -> 149 ;
150 [label="browser_Chrome <= -0.48\ngini = 0.13\nsamples = 12\nvalue = [13, 1]", fillcolor="#e78b48"] ;
149 -> 150 ;
151 [label="gini = 0.0\nsamples = 3\nvalue = [3, 0]", fillcolor="#e58139"] ;
150 -> 151 ;
152 [label="visitstarttime <= 1.11\ngini = 0.17\nsamples = 9\nvalue = [10, 1]", fillcolor="#e88e4d"] ;
150 -> 152 ;
153 [label="gini = 0.0\nsamples = 5\nvalue = [6, 0]", fillcolor="#e58139"] ;
152 -> 153 ;
154 [label="visitid <= 1.39\ngini = 0.32\nsamples = 4\nvalue = [4, 1]", fillcolor="#eca06a"] ;
152 -> 154 ;
155 [label="gini = 0.0\nsamples = 1\nvalue = [0, 1]", fillcolor="#399de5"] ;
154 -> 155 ;
156 [label="gini = 0.0\nsamples = 3\nvalue = [4, 0]", fillcolor="#e58139"] ;
154 -> 156 ;
157 [label="gini = 0.0\nsamples = 1\nvalue = [1, 0]", fillcolor="#e58139"] ;
149 -> 157 ;
158 [label="gini = 0.0\nsamples = 10\nvalue = [17, 0]", fillcolor="#e58139"] ;
148 -> 158 ;
159 [label="gini = 0.0\nsamples = 2\nvalue = [2, 0]", fillcolor="#e58139"] ;
147 -> 159 ;
160 [label="gini = 0.0\nsamples = 12\nvalue = [16, 0]", fillcolor="#e58139"] ;
146 -> 160 ;
161 [label="gini = 0.0\nsamples = 14\nvalue = [24, 0]", fillcolor="#e58139"] ;
141 -> 161 ;
162 [label="gini = 0.0\nsamples = 3\nvalue = [6, 0]", fillcolor="#e58139"] ;
140 -> 162 ;
163 [label="gini = 0.0\nsamples = 2\nvalue = [4, 0]", fillcolor="#e58139"] ;
139 -> 163 ;
164 [label="gini = 0.0\nsamples = 301\nvalue = [471, 0]", fillcolor="#e58139"] ;
122 -> 164 ;
165 [label="gini = 0.0\nsamples = 2505\nvalue = [4026, 0]", fillcolor="#e58139"] ;
119 -> 165 ;
166 [label="continent_Europe <= 0.67\ngini = 0.03\nsamples = 716\nvalue = [1112, 16]", fillcolor="#e5833c"] ;
4 -> 166 ;
167 [label="visitstarttime <= -1.46\ngini = 0.03\nsamples = 602\nvalue = [917, 16]", fillcolor="#e5833c"] ;
166 -> 167 ;
168 [label="medium_organic <= 0.15\ngini = 0.14\nsamples = 55\nvalue = [74, 6]", fillcolor="#e78b49"] ;
167 -> 168 ;
169 [label="browser_Chrome <= -0.48\ngini = 0.23\nsamples = 25\nvalue = [32, 5]", fillcolor="#e99558"] ;
168 -> 169 ;
170 [label="gini = 0.0\nsamples = 4\nvalue = [6, 0]", fillcolor="#e58139"] ;
169 -> 170 ;
171 [label="newvisits <= -0.58\ngini = 0.27\nsamples = 21\nvalue = [26, 5]", fillcolor="#ea995f"] ;
169 -> 171 ;
172 [label="subcontinent_Eastern Asia <= 1.88\ngini = 0.36\nsamples = 8\nvalue = [10, 3]", fillcolor="#eda774"] ;
171 -> 172 ;
173 [label="operatingsystem_Windows <= 0.35\ngini = 0.4\nsamples = 7\nvalue = [8, 3]", fillcolor="#efb083"] ;
172 -> 173 ;
174 [label="devicecategory_mobile <= 0.43\ngini = 0.24\nsamples = 5\nvalue = [6, 1]", fillcolor="#e9965a"] ;
173 -> 174 ;
175 [label="pageviews <= 0.96\ngini = 0.28\nsamples = 4\nvalue = [5, 1]", fillcolor="#ea9a61"] ;
174 -> 175 ;
176 [label="gini = 0.0\nsamples = 1\nvalue = [2, 0]", fillcolor="#e58139"] ;
175 -> 176 ;
177 [label="visitid <= -1.66\ngini = 0.38\nsamples = 3\nvalue = [3, 1]", fillcolor="#eeab7b"] ;
175 -> 177 ;
178 [label="gini = 0.0\nsamples = 2\nvalue = [3, 0]", fillcolor="#e58139"] ;
177 -> 178 ;
179 [label="gini = 0.0\nsamples = 1\nvalue = [0, 1]", fillcolor="#399de5"] ;
177 -> 179 ;
180 [label="gini = 0.0\nsamples = 1\nvalue = [1, 0]", fillcolor="#e58139"] ;
174 -> 180 ;
181 [label="medium_referral <= 1.16\ngini = 0.5\nsamples = 2\nvalue = [2, 2]", fillcolor="#ffffff"] ;
173 -> 181 ;
182 [label="gini = 0.0\nsamples = 1\nvalue = [2, 0]", fillcolor="#e58139"] ;
181 -> 182 ;
183 [label="gini = 0.0\nsamples = 1\nvalue = [0, 2]", fillcolor="#399de5"] ;
181 -> 183 ;
184 [label="gini = 0.0\nsamples = 1\nvalue = [2, 0]", fillcolor="#e58139"] ;
172 -> 184 ;
185 [label="operatingsystem_Linux <= 2.15\ngini = 0.2\nsamples = 13\nvalue = [16, 2]", fillcolor="#e89152"] ;
171 -> 185 ;
186 [label="continent_Asia <= 0.77\ngini = 0.22\nsamples = 11\nvalue = [14, 2]", fillcolor="#e99355"] ;
185 -> 186 ;
187 [label="source_groups.google.com <= 10.76\ngini = 0.26\nsamples = 9\nvalue = [11, 2]", fillcolor="#ea985d"] ;
186 -> 187 ;
188 [label="visitid <= -1.71\ngini = 0.3\nsamples = 8\nvalue = [9, 2]", fillcolor="#eb9d65"] ;
187 -> 188 ;
189 [label="visitstarttime <= -1.72\ngini = 0.5\nsamples = 3\nvalue = [2, 2]", fillcolor="#ffffff"] ;
188 -> 189 ;
190 [label="gini = 0.0\nsamples = 2\nvalue = [2, 0]", fillcolor="#e58139"] ;
189 -> 190 ;
191 [label="gini = 0.0\nsamples = 1\nvalue = [0, 2]", fillcolor="#399de5"] ;
189 -> 191 ;
192 [label="gini = 0.0\nsamples = 5\nvalue = [7, 0]", fillcolor="#e58139"] ;
188 -> 192 ;
193 [label="gini = 0.0\nsamples = 1\nvalue = [2, 0]", fillcolor="#e58139"] ;
187 -> 193 ;
194 [label="gini = 0.0\nsamples = 2\nvalue = [3, 0]", fillcolor="#e58139"] ;
186 -> 194 ;
195 [label="gini = 0.0\nsamples = 2\nvalue = [2, 0]", fillcolor="#e58139"] ;
185 -> 195 ;
196 [label="visitnumber <= -0.09\ngini = 0.05\nsamples = 30\nvalue = [42, 1]", fillcolor="#e6843e"] ;
168 -> 196 ;
197 [label="gini = 0.0\nsamples = 23\nvalue = [34, 0]", fillcolor="#e58139"] ;
196 -> 197 ;
198 [label="devicecategory_tablet <= 2.27\ngini = 0.2\nsamples = 7\nvalue = [8, 1]", fillcolor="#e89152"] ;
196 -> 198 ;
199 [label="visitstarttime <= -1.48\ngini = 0.22\nsamples = 6\nvalue = [7, 1]", fillcolor="#e99355"] ;
198 -> 199 ;
200 [label="gini = 0.0\nsamples = 5\nvalue = [7, 0]", fillcolor="#e58139"] ;
199 -> 200 ;
201 [label="gini = 0.0\nsamples = 1\nvalue = [0, 1]", fillcolor="#399de5"] ;
199 -> 201 ;
202 [label="gini = 0.0\nsamples = 1\nvalue = [1, 0]", fillcolor="#e58139"] ;
198 -> 202 ;
203 [label="operatingsystem_Macintosh <= 0.62\ngini = 0.02\nsamples = 547\nvalue = [843, 10]", fillcolor="#e5823b"] ;
167 -> 203 ;
204 [label="operatingsystem_Linux <= 2.15\ngini = 0.01\nsamples = 399\nvalue = [639, 3]", fillcolor="#e5823a"] ;
203 -> 204 ;
205 [label="devicecategory_desktop <= -0.33\ngini = 0.01\nsamples = 383\nvalue = [613, 2]", fillcolor="#e5813a"] ;
204 -> 205 ;
206 [label="visitnumber <= -0.09\ngini = 0.01\nsamples = 212\nvalue = [333, 2]", fillcolor="#e5823a"] ;
205 -> 206 ;
207 [label="pageviews <= 1.12\ngini = 0.01\nsamples = 173\nvalue = [280, 1]", fillcolor="#e5813a"] ;
206 -> 207 ;
208 [label="gini = 0.0\nsamples = 109\nvalue = [186, 0]", fillcolor="#e58139"] ;
207 -> 208 ;
209 [label="visitid <= 0.93\ngini = 0.02\nsamples = 64\nvalue = [94, 1]", fillcolor="#e5823b"] ;
207 -> 209 ;
210 [label="gini = 0.0\nsamples = 41\nvalue = [64, 0]", fillcolor="#e58139"] ;
209 -> 210 ;
211 [label="hits <= 0.87\ngini = 0.06\nsamples = 23\nvalue = [30, 1]", fillcolor="#e68540"] ;
209 -> 211 ;
212 [label="source_yahoo <= 12.8\ngini = 0.15\nsamples = 10\nvalue = [11, 1]", fillcolor="#e78c4b"] ;
211 -> 212 ;
213 [label="visitstarttime <= 0.95\ngini = 0.2\nsamples = 9\nvalue = [8, 1]", fillcolor="#e89152"] ;
212 -> 213 ;
214 [label="gini = 0.0\nsamples = 1\nvalue = [0, 1]", fillcolor="#399de5"] ;
213 -> 214 ;
215 [label="gini = 0.0\nsamples = 8\nvalue = [8, 0]", fillcolor="#e58139"] ;
213 -> 215 ;
216 [label="gini = 0.0\nsamples = 1\nvalue = [3, 0]", fillcolor="#e58139"] ;
212 -> 216 ;
217 [label="gini = 0.0\nsamples = 13\nvalue = [19, 0]", fillcolor="#e58139"] ;
211 -> 217 ;
218 [label="operatingsystem_Android <= 0.86\ngini = 0.04\nsamples = 39\nvalue = [53, 1]", fillcolor="#e5833d"] ;
206 -> 218 ;
219 [label="visitnumber <= -0.0\ngini = 0.08\nsamples = 14\nvalue = [22, 1]", fillcolor="#e68742"] ;
218 -> 219 ;
220 [label="pageviews <= 1.12\ngini = 0.22\nsamples = 5\nvalue = [7, 1]", fillcolor="#e99355"] ;
219 -> 220 ;
221 [label="gini = 0.0\nsamples = 4\nvalue = [7, 0]", fillcolor="#e58139"] ;
220 -> 221 ;
222 [label="gini = 0.0\nsamples = 1\nvalue = [0, 1]", fillcolor="#399de5"] ;
220 -> 222 ;
223 [label="gini = 0.0\nsamples = 9\nvalue = [15, 0]", fillcolor="#e58139"] ;
219 -> 223 ;
224 [label="gini = 0.0\nsamples = 25\nvalue = [31, 0]", fillcolor="#e58139"] ;
218 -> 224 ;
225 [label="gini = 0.0\nsamples = 171\nvalue = [280, 0]", fillcolor="#e58139"] ;
205 -> 225 ;
226 [label="source_quora.com <= 10.62\ngini = 0.07\nsamples = 16\nvalue = [26, 1]", fillcolor="#e68641"] ;
204 -> 226 ;
227 [label="pageviews <= 1.12\ngini = 0.07\nsamples = 15\nvalue = [25, 1]", fillcolor="#e68641"] ;
226 -> 227 ;
228 [label="continent_Americas <= -0.1\ngini = 0.15\nsamples = 8\nvalue = [11, 1]", fillcolor="#e78c4b"] ;
227 -> 228 ;
229 [label="gini = 0.0\nsamples = 1\nvalue = [0, 1]", fillcolor="#399de5"] ;
228 -> 229 ;
230 [label="gini = 0.0\nsamples = 7\nvalue = [11, 0]", fillcolor="#e58139"] ;
228 -> 230 ;
231 [label="gini = 0.0\nsamples = 7\nvalue = [14, 0]", fillcolor="#e58139"] ;
227 -> 231 ;
232 [label="gini = 0.0\nsamples = 1\nvalue = [1, 0]", fillcolor="#e58139"] ;
226 -> 232 ;
233 [label="newvisits <= -0.58\ngini = 0.06\nsamples = 148\nvalue = [204, 7]", fillcolor="#e68540"] ;
203 -> 233 ;
234 [label="visitnumber <= 0.08\ngini = 0.17\nsamples = 49\nvalue = [67, 7]", fillcolor="#e88e4e"] ;
233 -> 234 ;
235 [label="country_United States <= 0.06\ngini = 0.24\nsamples = 31\nvalue = [42, 7]", fillcolor="#e9965a"] ;
234 -> 235 ;
236 [label="gini = 0.0\nsamples = 9\nvalue = [12, 0]", fillcolor="#e58139"] ;
235 -> 236 ;
237 [label="channelgrouping_Social <= 1.65\ngini = 0.31\nsamples = 22\nvalue = [30, 7]", fillcolor="#eb9e67"] ;
235 -> 237 ;
238 [label="channelgrouping_Paid Search <= 2.5\ngini = 0.24\nsamples = 21\nvalue = [30, 5]", fillcolor="#e9965a"] ;
237 -> 238 ;
239 [label="browser_Chrome <= -0.48\ngini = 0.27\nsamples = 18\nvalue = [26, 5]", fillcolor="#ea995f"] ;
238 -> 239 ;
240 [label="hits <= 0.87\ngini = 0.5\nsamples = 2\nvalue = [2, 2]", fillcolor="#ffffff"] ;
239 -> 240 ;
241 [label="gini = 0.0\nsamples = 1\nvalue = [2, 0]", fillcolor="#e58139"] ;
240 -> 241 ;
242 [label="gini = 0.0\nsamples = 1\nvalue = [0, 2]", fillcolor="#399de5"] ;
240 -> 242 ;
243 [label="medium_(none) <= 0.21\ngini = 0.2\nsamples = 16\nvalue = [24, 3]", fillcolor="#e89152"] ;
239 -> 243 ;
244 [label="pageviews <= 0.96\ngini = 0.38\nsamples = 8\nvalue = [9, 3]", fillcolor="#eeab7b"] ;
243 -> 244 ;
245 [label="gini = 0.0\nsamples = 3\nvalue = [4, 0]", fillcolor="#e58139"] ;
244 -> 245 ;
246 [label="hits <= 0.87\ngini = 0.47\nsamples = 5\nvalue = [5, 3]", fillcolor="#f5cdb0"] ;
244 -> 246 ;
247 [label="visitid <= -0.03\ngini = 0.49\nsamples = 4\nvalue = [4, 3]", fillcolor="#f8e0ce"] ;
246 -> 247 ;
248 [label="visitid <= -0.83\ngini = 0.48\nsamples = 3\nvalue = [2, 3]", fillcolor="#bddef6"] ;
247 -> 248 ;
249 [label="istruedirect <= 0.31\ngini = 0.44\nsamples = 2\nvalue = [2, 1]", fillcolor="#f2c09c"] ;
248 -> 249 ;
250 [label="gini = 0.0\nsamples = 1\nvalue = [0, 1]", fillcolor="#399de5"] ;
249 -> 250 ;
251 [label="gini = 0.0\nsamples = 1\nvalue = [2, 0]", fillcolor="#e58139"] ;
249 -> 251 ;
252 [label="gini = 0.0\nsamples = 1\nvalue = [0, 2]", fillcolor="#399de5"] ;
248 -> 252 ;
253 [label="gini = 0.0\nsamples = 1\nvalue = [2, 0]", fillcolor="#e58139"] ;
247 -> 253 ;
254 [label="gini = 0.0\nsamples = 1\nvalue = [1, 0]", fillcolor="#e58139"] ;
246 -> 254 ;
255 [label="gini = 0.0\nsamples = 8\nvalue = [15, 0]", fillcolor="#e58139"] ;
243 -> 255 ;
256 [label="gini = 0.0\nsamples = 3\nvalue = [4, 0]", fillcolor="#e58139"] ;
238 -> 256 ;
257 [label="gini = 0.0\nsamples = 1\nvalue = [0, 2]", fillcolor="#399de5"] ;
237 -> 257 ;
258 [label="gini = 0.0\nsamples = 18\nvalue = [25, 0]", fillcolor="#e58139"] ;
234 -> 258 ;
259 [label="gini = 0.0\nsamples = 99\nvalue = [137, 0]", fillcolor="#e58139"] ;
233 -> 259 ;
260 [label="gini = 0.0\nsamples = 114\nvalue = [195, 0]", fillcolor="#e58139"] ;
166 -> 260 ;
261 [label="visitstarttime <= -1.7\ngini = 0.08\nsamples = 888\nvalue = [1357, 56]", fillcolor="#e68641"] ;
3 -> 261 ;
262 [label="visitid <= -1.71\ngini = 0.46\nsamples = 23\nvalue = [24, 13]", fillcolor="#f3c5a4"] ;
261 -> 262 ;
263 [label="browser_Chrome <= -0.48\ngini = 0.4\nsamples = 21\nvalue = [24, 9]", fillcolor="#efb083"] ;
262 -> 263 ;
264 [label="gini = 0.0\nsamples = 4\nvalue = [8, 0]", fillcolor="#e58139"] ;
263 -> 264 ;
265 [label="visitstarttime <= -1.74\ngini = 0.46\nsamples = 17\nvalue = [16, 9]", fillcolor="#f4c8a8"] ;
263 -> 265 ;
266 [label="country_Thailand <= 6.64\ngini = 0.47\nsamples = 6\nvalue = [3, 5]", fillcolor="#b0d8f5"] ;
265 -> 266 ;
267 [label="source_(direct) <= 0.21\ngini = 0.41\nsamples = 5\nvalue = [2, 5]", fillcolor="#88c4ef"] ;
266 -> 267 ;
268 [label="gini = 0.0\nsamples = 1\nvalue = [1, 0]", fillcolor="#e58139"] ;
267 -> 268 ;
269 [label="country_Israel <= 7.36\ngini = 0.28\nsamples = 4\nvalue = [1, 5]", fillcolor="#61b1ea"] ;
267 -> 269 ;
270 [label="gini = 0.0\nsamples = 3\nvalue = [0, 5]", fillcolor="#399de5"] ;
269 -> 270 ;
271 [label="gini = 0.0\nsamples = 1\nvalue = [1, 0]", fillcolor="#e58139"] ;
269 -> 271 ;
272 [label="gini = 0.0\nsamples = 1\nvalue = [1, 0]", fillcolor="#e58139"] ;
266 -> 272 ;
273 [label="devicecategory_tablet <= 2.27\ngini = 0.36\nsamples = 11\nvalue = [13, 4]", fillcolor="#eda876"] ;
265 -> 273 ;
274 [label="istruedirect <= 0.31\ngini = 0.3\nsamples = 10\nvalue = [13, 3]", fillcolor="#eb9e67"] ;
273 -> 274 ;
275 [label="gini = 0.0\nsamples = 4\nvalue = [8, 0]", fillcolor="#e58139"] ;
274 -> 275 ;
276 [label="operatingsystem_Macintosh <= 0.62\ngini = 0.47\nsamples = 6\nvalue = [5, 3]", fillcolor="#f5cdb0"] ;
274 -> 276 ;
277 [label="source_(direct) <= 0.21\ngini = 0.38\nsamples = 3\nvalue = [1, 3]", fillcolor="#7bbeee"] ;
276 -> 277 ;
278 [label="gini = 0.0\nsamples = 1\nvalue = [0, 1]", fillcolor="#399de5"] ;
277 -> 278 ;
279 [label="visitstarttime <= -1.72\ngini = 0.44\nsamples = 2\nvalue = [1, 2]", fillcolor="#9ccef2"] ;
277 -> 279 ;
280 [label="gini = 0.0\nsamples = 1\nvalue = [0, 2]", fillcolor="#399de5"] ;
279 -> 280 ;
281 [label="gini = 0.0\nsamples = 1\nvalue = [1, 0]", fillcolor="#e58139"] ;
279 -> 281 ;
282 [label="gini = 0.0\nsamples = 3\nvalue = [4, 0]", fillcolor="#e58139"] ;
276 -> 282 ;
283 [label="gini = 0.0\nsamples = 1\nvalue = [0, 1]", fillcolor="#399de5"] ;
273 -> 283 ;
284 [label="gini = 0.0\nsamples = 2\nvalue = [0, 4]", fillcolor="#399de5"] ;
262 -> 284 ;
285 [label="newvisits <= -0.58\ngini = 0.06\nsamples = 865\nvalue = [1333, 43]", fillcolor="#e6853f"] ;
261 -> 285 ;
286 [label="country_India <= 1.75\ngini = 0.13\nsamples = 202\nvalue = [298, 23]", fillcolor="#e78b48"] ;
285 -> 286 ;
287 [label="channelgrouping_Display <= 5.63\ngini = 0.14\nsamples = 189\nvalue = [281, 23]", fillcolor="#e78b49"] ;
286 -> 287 ;
288 [label="visitstarttime <= -1.31\ngini = 0.13\nsamples = 182\nvalue = [271, 20]", fillcolor="#e78a48"] ;
287 -> 288 ;
289 [label="continent_Asia <= 0.77\ngini = 0.33\nsamples = 30\nvalue = [37, 10]", fillcolor="#eca36f"] ;
288 -> 289 ;
290 [label="hits <= 1.24\ngini = 0.36\nsamples = 27\nvalue = [33, 10]", fillcolor="#eda775"] ;
289 -> 290 ;
291 [label="medium_(none) <= 0.21\ngini = 0.09\nsamples = 13\nvalue = [19, 1]", fillcolor="#e68843"] ;
290 -> 291 ;
292 [label="gini = 0.0\nsamples = 9\nvalue = [13, 0]", fillcolor="#e58139"] ;
291 -> 292 ;
293 [label="operatingsystem_Windows <= 0.35\ngini = 0.24\nsamples = 4\nvalue = [6, 1]", fillcolor="#e9965a"] ;
291 -> 293 ;
294 [label="visitid <= -1.53\ngini = 0.32\nsamples = 3\nvalue = [4, 1]", fillcolor="#eca06a"] ;
293 -> 294 ;
295 [label="gini = 0.0\nsamples = 2\nvalue = [4, 0]", fillcolor="#e58139"] ;
294 -> 295 ;
296 [label="gini = 0.0\nsamples = 1\nvalue = [0, 1]", fillcolor="#399de5"] ;
294 -> 296 ;
297 [label="gini = 0.0\nsamples = 1\nvalue = [2, 0]", fillcolor="#e58139"] ;
293 -> 297 ;
298 [label="devicecategory_desktop <= -0.33\ngini = 0.48\nsamples = 14\nvalue = [14, 9]", fillcolor="#f6d2b8"] ;
290 -> 298 ;
299 [label="medium_(none) <= 0.21\ngini = 0.48\nsamples = 4\nvalue = [3, 2]", fillcolor="#f6d5bd"] ;
298 -> 299 ;
300 [label="pageviews <= 1.79\ngini = 0.38\nsamples = 3\nvalue = [3, 1]", fillcolor="#eeab7b"] ;
299 -> 300 ;
301 [label="gini = 0.0\nsamples = 2\nvalue = [3, 0]", fillcolor="#e58139"] ;
300 -> 301 ;
302 [label="gini = 0.0\nsamples = 1\nvalue = [0, 1]", fillcolor="#399de5"] ;
300 -> 302 ;
303 [label="gini = 0.0\nsamples = 1\nvalue = [0, 1]", fillcolor="#399de5"] ;
299 -> 303 ;
304 [label="medium_organic <= 0.15\ngini = 0.48\nsamples = 10\nvalue = [11, 7]", fillcolor="#f6d1b7"] ;
298 -> 304 ;
305 [label="operatingsystem_Chrome OS <= 2.44\ngini = 0.5\nsamples = 5\nvalue = [5, 5]", fillcolor="#ffffff"] ;
304 -> 305 ;
306 [label="operatingsystem_Windows <= 0.35\ngini = 0.47\nsamples = 4\nvalue = [3, 5]", fillcolor="#b0d8f5"] ;
305 -> 306 ;
307 [label="hits <= 1.36\ngini = 0.5\nsamples = 2\nvalue = [2, 2]", fillcolor="#ffffff"] ;
306 -> 307 ;
308 [label="gini = 0.0\nsamples = 1\nvalue = [2, 0]", fillcolor="#e58139"] ;
307 -> 308 ;
309 [label="gini = 0.0\nsamples = 1\nvalue = [0, 2]", fillcolor="#399de5"] ;
307 -> 309 ;
310 [label="pageviews <= 1.62\ngini = 0.38\nsamples = 2\nvalue = [1, 3]", fillcolor="#7bbeee"] ;
306 -> 310 ;
311 [label="gini = 0.0\nsamples = 1\nvalue = [1, 0]", fillcolor="#e58139"] ;
310 -> 311 ;
312 [label="gini = 0.0\nsamples = 1\nvalue = [0, 3]", fillcolor="#399de5"] ;
310 -> 312 ;
313 [label="gini = 0.0\nsamples = 1\nvalue = [2, 0]", fillcolor="#e58139"] ;
305 -> 313 ;
314 [label="country_Spain <= 4.11\ngini = 0.38\nsamples = 5\nvalue = [6, 2]", fillcolor="#eeab7b"] ;
304 -> 314 ;
315 [label="operatingsystem_Windows <= 0.35\ngini = 0.48\nsamples = 4\nvalue = [3, 2]", fillcolor="#f6d5bd"] ;
314 -> 315 ;
316 [label="hits <= 1.36\ngini = 0.5\nsamples = 3\nvalue = [2, 2]", fillcolor="#ffffff"] ;
315 -> 316 ;
317 [label="browser_Chrome <= -0.48\ngini = 0.44\nsamples = 2\nvalue = [2, 1]", fillcolor="#f2c09c"] ;
316 -> 317 ;
318 [label="gini = 0.0\nsamples = 1\nvalue = [0, 1]", fillcolor="#399de5"] ;
317 -> 318 ;
319 [label="gini = 0.0\nsamples = 1\nvalue = [2, 0]", fillcolor="#e58139"] ;
317 -> 319 ;
320 [label="gini = 0.0\nsamples = 1\nvalue = [0, 1]", fillcolor="#399de5"] ;
316 -> 320 ;
321 [label="gini = 0.0\nsamples = 1\nvalue = [1, 0]", fillcolor="#e58139"] ;
315 -> 321 ;
322 [label="gini = 0.0\nsamples = 1\nvalue = [3, 0]", fillcolor="#e58139"] ;
314 -> 322 ;
323 [label="gini = 0.0\nsamples = 3\nvalue = [4, 0]", fillcolor="#e58139"] ;
289 -> 323 ;
324 [label="operatingsystem_iOS <= 0.91\ngini = 0.08\nsamples = 152\nvalue = [234, 10]", fillcolor="#e68641"] ;
288 -> 324 ;
325 [label="istruedirect <= 0.31\ngini = 0.09\nsamples = 133\nvalue = [203, 10]", fillcolor="#e68743"] ;
324 -> 325 ;
326 [label="continent_Americas <= -0.1\ngini = 0.16\nsamples = 22\nvalue = [31, 3]", fillcolor="#e88d4c"] ;
325 -> 326 ;
327 [label="gini = 0.0\nsamples = 5\nvalue = [5, 0]", fillcolor="#e58139"] ;
326 -> 327 ;
328 [label="medium_cpc <= 2.98\ngini = 0.19\nsamples = 17\nvalue = [26, 3]", fillcolor="#e89050"] ;
326 -> 328 ;
329 [label="channelgrouping_Social <= 1.65\ngini = 0.21\nsamples = 16\nvalue = [22, 3]", fillcolor="#e99254"] ;
328 -> 329 ;
330 [label="source_(direct) <= 0.21\ngini = 0.24\nsamples = 14\nvalue = [18, 3]", fillcolor="#e9965a"] ;
329 -> 330 ;
331 [label="operatingsystem_Macintosh <= 0.62\ngini = 0.12\nsamples = 9\nvalue = [14, 1]", fillcolor="#e78a47"] ;
330 -> 331 ;
332 [label="pageviews <= 1.46\ngini = 0.24\nsamples = 5\nvalue = [6, 1]", fillcolor="#e9965a"] ;
331 -> 332 ;
333 [label="gini = 0.0\nsamples = 4\nvalue = [6, 0]", fillcolor="#e58139"] ;
332 -> 333 ;
334 [label="gini = 0.0\nsamples = 1\nvalue = [0, 1]", fillcolor="#399de5"] ;
332 -> 334 ;
335 [label="gini = 0.0\nsamples = 4\nvalue = [8, 0]", fillcolor="#e58139"] ;
331 -> 335 ;
336 [label="operatingsystem_Windows <= 0.35\ngini = 0.44\nsamples = 5\nvalue = [4, 2]", fillcolor="#f2c09c"] ;
330 -> 336 ;
337 [label="visitstarttime <= -0.16\ngini = 0.48\nsamples = 4\nvalue = [3, 2]", fillcolor="#f6d5bd"] ;
336 -> 337 ;
338 [label="gini = 0.0\nsamples = 2\nvalue = [2, 0]", fillcolor="#e58139"] ;
337 -> 338 ;
339 [label="visitnumber <= -0.0\ngini = 0.44\nsamples = 2\nvalue = [1, 2]", fillcolor="#9ccef2"] ;
337 -> 339 ;
340 [label="gini = 0.0\nsamples = 1\nvalue = [0, 2]", fillcolor="#399de5"] ;
339 -> 340 ;
341 [label="gini = 0.0\nsamples = 1\nvalue = [1, 0]", fillcolor="#e58139"] ;
339 -> 341 ;
342 [label="gini = 0.0\nsamples = 1\nvalue = [1, 0]", fillcolor="#e58139"] ;
336 -> 342 ;
343 [label="gini = 0.0\nsamples = 2\nvalue = [4, 0]", fillcolor="#e58139"] ;
329 -> 343 ;
344 [label="gini = 0.0\nsamples = 1\nvalue = [4, 0]", fillcolor="#e58139"] ;
328 -> 344 ;
345 [label="visitid <= -0.67\ngini = 0.08\nsamples = 111\nvalue = [172, 7]", fillcolor="#e68641"] ;
325 -> 345 ;
346 [label="browser_Safari <= 0.86\ngini = 0.19\nsamples = 26\nvalue = [33, 4]", fillcolor="#e89051"] ;
345 -> 346 ;
347 [label="country_Canada <= 2.66\ngini = 0.23\nsamples = 23\nvalue = [26, 4]", fillcolor="#e99457"] ;
346 -> 347 ;
348 [label="subcontinent_Northern Europe <= 1.62\ngini = 0.19\nsamples = 22\nvalue = [26, 3]", fillcolor="#e89050"] ;
347 -> 348 ;
349 [label="source_(direct) <= 0.21\ngini = 0.2\nsamples = 20\nvalue = [24, 3]", fillcolor="#e89152"] ;
348 -> 349 ;
350 [label="channelgrouping_Organic Search <= -0.06\ngini = 0.22\nsamples = 18\nvalue = [21, 3]", fillcolor="#e99355"] ;
349 -> 350 ;
351 [label="continent_Asia <= 0.77\ngini = 0.5\nsamples = 2\nvalue = [2, 2]", fillcolor="#ffffff"] ;
350 -> 351 ;
352 [label="gini = 0.0\nsamples = 1\nvalue = [0, 2]", fillcolor="#399de5"] ;
351 -> 352 ;
353 [label="gini = 0.0\nsamples = 1\nvalue = [2, 0]", fillcolor="#e58139"] ;
351 -> 353 ;
354 [label="pageviews <= 1.29\ngini = 0.09\nsamples = 16\nvalue = [19, 1]", fillcolor="#e68843"] ;
350 -> 354 ;
355 [label="gini = 0.0\nsamples = 9\nvalue = [11, 0]", fillcolor="#e58139"] ;
354 -> 355 ;
356 [label="visitstarttime <= -1.07\ngini = 0.2\nsamples = 7\nvalue = [8, 1]", fillcolor="#e89152"] ;
354 -> 356 ;
357 [label="gini = 0.0\nsamples = 3\nvalue = [4, 0]", fillcolor="#e58139"] ;
356 -> 357 ;
358 [label="source_google <= 0.11\ngini = 0.32\nsamples = 4\nvalue = [4, 1]", fillcolor="#eca06a"] ;
356 -> 358 ;
359 [label="gini = 0.0\nsamples = 1\nvalue = [0, 1]", fillcolor="#399de5"] ;
358 -> 359 ;
360 [label="gini = 0.0\nsamples = 3\nvalue = [4, 0]", fillcolor="#e58139"] ;
358 -> 360 ;
361 [label="gini = 0.0\nsamples = 2\nvalue = [3, 0]", fillcolor="#e58139"] ;
349 -> 361 ;
362 [label="gini = 0.0\nsamples = 2\nvalue = [2, 0]", fillcolor="#e58139"] ;
348 -> 362 ;
363 [label="gini = 0.0\nsamples = 1\nvalue = [0, 1]", fillcolor="#399de5"] ;
347 -> 363 ;
364 [label="gini = 0.0\nsamples = 3\nvalue = [7, 0]", fillcolor="#e58139"] ;
346 -> 364 ;
365 [label="country_United States <= 0.06\ngini = 0.04\nsamples = 85\nvalue = [139, 3]", fillcolor="#e6843d"] ;
345 -> 365 ;
366 [label="gini = 0.0\nsamples = 41\nvalue = [74, 0]", fillcolor="#e58139"] ;
365 -> 366 ;
367 [label="devicecategory_desktop <= -0.33\ngini = 0.08\nsamples = 44\nvalue = [65, 3]", fillcolor="#e68742"] ;
365 -> 367 ;
368 [label="gini = 0.0\nsamples = 6\nvalue = [9, 0]", fillcolor="#e58139"] ;
367 -> 368 ;
369 [label="source_(direct) <= 0.21\ngini = 0.1\nsamples = 38\nvalue = [56, 3]", fillcolor="#e68844"] ;
367 -> 369 ;
370 [label="sessionqualitydim <= 1.35\ngini = 0.1\nsamples = 11\nvalue = [17, 1]", fillcolor="#e78845"] ;
369 -> 370 ;
371 [label="visitnumber <= 0.16\ngini = 0.17\nsamples = 8\nvalue = [10, 1]", fillcolor="#e88e4d"] ;
370 -> 371 ;
372 [label="gini = 0.0\nsamples = 6\nvalue = [9, 0]", fillcolor="#e58139"] ;
371 -> 372 ;
373 [label="operatingsystem_Macintosh <= 0.62\ngini = 0.5\nsamples = 2\nvalue = [1, 1]", fillcolor="#ffffff"] ;
371 -> 373 ;
374 [label="gini = 0.0\nsamples = 1\nvalue = [0, 1]", fillcolor="#399de5"] ;
373 -> 374 ;
375 [label="gini = 0.0\nsamples = 1\nvalue = [1, 0]", fillcolor="#e58139"] ;
373 -> 375 ;
376 [label="gini = 0.0\nsamples = 3\nvalue = [7, 0]", fillcolor="#e58139"] ;
370 -> 376 ;
377 [label="browser_Chrome <= -0.48\ngini = 0.09\nsamples = 27\nvalue = [39, 2]", fillcolor="#e68743"] ;
369 -> 377 ;
378 [label="hits <= 1.24\ngini = 0.44\nsamples = 2\nvalue = [2, 1]", fillcolor="#f2c09c"] ;
377 -> 378 ;
379 [label="gini = 0.0\nsamples = 1\nvalue = [2, 0]", fillcolor="#e58139"] ;
378 -> 379 ;
380 [label="gini = 0.0\nsamples = 1\nvalue = [0, 1]", fillcolor="#399de5"] ;
378 -> 380 ;
381 [label="visitstarttime <= 0.3\ngini = 0.05\nsamples = 25\nvalue = [37, 1]", fillcolor="#e6843e"] ;
377 -> 381 ;
382 [label="gini = 0.0\nsamples = 18\nvalue = [26, 0]", fillcolor="#e58139"] ;
381 -> 382 ;
383 [label="pageviews <= 1.62\ngini = 0.15\nsamples = 7\nvalue = [11, 1]", fillcolor="#e78c4b"] ;
381 -> 383 ;
384 [label="gini = 0.0\nsamples = 6\nvalue = [11, 0]", fillcolor="#e58139"] ;
383 -> 384 ;
385 [label="gini = 0.0\nsamples = 1\nvalue = [0, 1]", fillcolor="#399de5"] ;
383 -> 385 ;
386 [label="gini = 0.0\nsamples = 19\nvalue = [31, 0]", fillcolor="#e58139"] ;
324 -> 386 ;
387 [label="browser_Firefox <= 2.35\ngini = 0.36\nsamples = 7\nvalue = [10, 3]", fillcolor="#eda774"] ;
287 -> 387 ;
388 [label="devicecategory_mobile <= 0.43\ngini = 0.3\nsamples = 5\nvalue = [9, 2]", fillcolor="#eb9d65"] ;
387 -> 388 ;
389 [label="visitstarttime <= 1.08\ngini = 0.48\nsamples = 3\nvalue = [3, 2]", fillcolor="#f6d5bd"] ;
388 -> 389 ;
390 [label="hits <= 1.17\ngini = 0.44\nsamples = 2\nvalue = [1, 2]", fillcolor="#9ccef2"] ;
389 -> 390 ;
391 [label="gini = 0.0\nsamples = 1\nvalue = [0, 2]", fillcolor="#399de5"] ;
390 -> 391 ;
392 [label="gini = 0.0\nsamples = 1\nvalue = [1, 0]", fillcolor="#e58139"] ;
390 -> 392 ;
393 [label="gini = 0.0\nsamples = 1\nvalue = [2, 0]", fillcolor="#e58139"] ;
389 -> 393 ;
394 [label="gini = 0.0\nsamples = 2\nvalue = [6, 0]", fillcolor="#e58139"] ;
388 -> 394 ;
395 [label="visitstarttime <= -0.19\ngini = 0.5\nsamples = 2\nvalue = [1, 1]", fillcolor="#ffffff"] ;
387 -> 395 ;
396 [label="gini = 0.0\nsamples = 1\nvalue = [0, 1]", fillcolor="#399de5"] ;
395 -> 396 ;
397 [label="gini = 0.0\nsamples = 1\nvalue = [1, 0]", fillcolor="#e58139"] ;
395 -> 397 ;
398 [label="gini = 0.0\nsamples = 13\nvalue = [17, 0]", fillcolor="#e58139"] ;
286 -> 398 ;
399 [label="channelgrouping_Paid Search <= 2.5\ngini = 0.04\nsamples = 663\nvalue = [1035, 20]", fillcolor="#e6833d"] ;
285 -> 399 ;
400 [label="subcontinent_Northern America <= -0.0\ngini = 0.03\nsamples = 622\nvalue = [961, 14]", fillcolor="#e5833c"] ;
399 -> 400 ;
401 [label="channelgrouping_Direct <= 0.78\ngini = 0.0\nsamples = 298\nvalue = [460, 1]", fillcolor="#e58139"] ;
400 -> 401 ;
402 [label="gini = 0.0\nsamples = 209\nvalue = [327, 0]", fillcolor="#e58139"] ;
401 -> 402 ;
403 [label="browser_Chrome <= -0.48\ngini = 0.01\nsamples = 89\nvalue = [133, 1]", fillcolor="#e5823a"] ;
401 -> 403 ;
404 [label="sessionqualitydim <= 2.06\ngini = 0.05\nsamples = 28\nvalue = [42, 1]", fillcolor="#e6843e"] ;
403 -> 404 ;
405 [label="gini = 0.0\nsamples = 27\nvalue = [42, 0]", fillcolor="#e58139"] ;
404 -> 405 ;
406 [label="gini = 0.0\nsamples = 1\nvalue = [0, 1]", fillcolor="#399de5"] ;
404 -> 406 ;
407 [label="gini = 0.0\nsamples = 61\nvalue = [91, 0]", fillcolor="#e58139"] ;
403 -> 407 ;
408 [label="medium_referral <= 1.16\ngini = 0.05\nsamples = 324\nvalue = [501, 13]", fillcolor="#e6843e"] ;
400 -> 408 ;
409 [label="channelgrouping_Direct <= 0.78\ngini = 0.05\nsamples = 313\nvalue = [481, 13]", fillcolor="#e6843e"] ;
408 -> 409 ;
410 [label="pageviews <= 1.79\ngini = 0.02\nsamples = 244\nvalue = [388, 3]", fillcolor="#e5823b"] ;
409 -> 410 ;
411 [label="source_Partners <= 3.26\ngini = 0.01\nsamples = 221\nvalue = [358, 1]", fillcolor="#e5813a"] ;
410 -> 411 ;
412 [label="medium_organic <= 0.15\ngini = 0.01\nsamples = 220\nvalue = [356, 1]", fillcolor="#e5813a"] ;
411 -> 412 ;
413 [label="gini = 0.0\nsamples = 39\nvalue = [67, 0]", fillcolor="#e58139"] ;
412 -> 413 ;
414 [label="browser_Safari <= 0.86\ngini = 0.01\nsamples = 181\nvalue = [289, 1]", fillcolor="#e5813a"] ;
412 -> 414 ;
415 [label="visitstarttime <= -1.61\ngini = 0.01\nsamples = 147\nvalue = [230, 1]", fillcolor="#e5823a"] ;
414 -> 415 ;
416 [label="hits <= 1.36\ngini = 0.22\nsamples = 6\nvalue = [7, 1]", fillcolor="#e99355"] ;
415 -> 416 ;
417 [label="gini = 0.0\nsamples = 5\nvalue = [7, 0]", fillcolor="#e58139"] ;
416 -> 417 ;
418 [label="gini = 0.0\nsamples = 1\nvalue = [0, 1]", fillcolor="#399de5"] ;
416 -> 418 ;
419 [label="gini = 0.0\nsamples = 141\nvalue = [223, 0]", fillcolor="#e58139"] ;
415 -> 419 ;
420 [label="gini = 0.0\nsamples = 34\nvalue = [59, 0]", fillcolor="#e58139"] ;
414 -> 420 ;
421 [label="gini = 0.0\nsamples = 1\nvalue = [2, 0]", fillcolor="#e58139"] ;
411 -> 421 ;
422 [label="medium_(none) <= 0.21\ngini = 0.12\nsamples = 23\nvalue = [30, 2]", fillcolor="#e78946"] ;
410 -> 422 ;
423 [label="visitstarttime <= -0.46\ngini = 0.06\nsamples = 21\nvalue = [29, 1]", fillcolor="#e68540"] ;
422 -> 423 ;
424 [label="visitid <= -0.49\ngini = 0.12\nsamples = 10\nvalue = [14, 1]", fillcolor="#e78a47"] ;
423 -> 424 ;
425 [label="gini = 0.0\nsamples = 9\nvalue = [14, 0]", fillcolor="#e58139"] ;
424 -> 425 ;
426 [label="gini = 0.0\nsamples = 1\nvalue = [0, 1]", fillcolor="#399de5"] ;
424 -> 426 ;
427 [label="gini = 0.0\nsamples = 11\nvalue = [15, 0]", fillcolor="#e58139"] ;
423 -> 427 ;
428 [label="visitid <= 0.32\ngini = 0.5\nsamples = 2\nvalue = [1, 1]", fillcolor="#ffffff"] ;
422 -> 428 ;
429 [label="gini = 0.0\nsamples = 1\nvalue = [1, 0]", fillcolor="#e58139"] ;
428 -> 429 ;
430 [label="gini = 0.0\nsamples = 1\nvalue = [0, 1]", fillcolor="#399de5"] ;
428 -> 430 ;
431 [label="country_United States <= 0.06\ngini = 0.18\nsamples = 69\nvalue = [93, 10]", fillcolor="#e88f4e"] ;
409 -> 431 ;
432 [label="gini = 0.0\nsamples = 4\nvalue = [6, 0]", fillcolor="#e58139"] ;
431 -> 432 ;
433 [label="browser_Chrome <= -0.48\ngini = 0.18\nsamples = 65\nvalue = [87, 10]", fillcolor="#e88f50"] ;
431 -> 433 ;
434 [label="browser_Opera <= 7.56\ngini = 0.08\nsamples = 16\nvalue = [22, 1]", fillcolor="#e68742"] ;
433 -> 434 ;
435 [label="visitstarttime <= -0.78\ngini = 0.1\nsamples = 14\nvalue = [17, 1]", fillcolor="#e78845"] ;
434 -> 435 ;
436 [label="devicecategory_desktop <= -0.33\ngini = 0.24\nsamples = 5\nvalue = [6, 1]", fillcolor="#e9965a"] ;
435 -> 436 ;
437 [label="visitstarttime <= -1.09\ngini = 0.44\nsamples = 2\nvalue = [2, 1]", fillcolor="#f2c09c"] ;
436 -> 437 ;
438 [label="gini = 0.0\nsamples = 1\nvalue = [2, 0]", fillcolor="#e58139"] ;
437 -> 438 ;
439 [label="gini = 0.0\nsamples = 1\nvalue = [0, 1]", fillcolor="#399de5"] ;
437 -> 439 ;
440 [label="gini = 0.0\nsamples = 3\nvalue = [4, 0]", fillcolor="#e58139"] ;
436 -> 440 ;
441 [label="gini = 0.0\nsamples = 9\nvalue = [11, 0]", fillcolor="#e58139"] ;
435 -> 441 ;
442 [label="gini = 0.0\nsamples = 2\nvalue = [5, 0]", fillcolor="#e58139"] ;
434 -> 442 ;
443 [label="visitstarttime <= -0.97\ngini = 0.21\nsamples = 49\nvalue = [65, 9]", fillcolor="#e99254"] ;
433 -> 443 ;
444 [label="devicecategory_desktop <= -0.33\ngini = 0.48\nsamples = 13\nvalue = [10, 7]", fillcolor="#f7d9c4"] ;
443 -> 444 ;
445 [label="gini = 0.0\nsamples = 1\nvalue = [0, 1]", fillcolor="#399de5"] ;
444 -> 445 ;
446 [label="visitstarttime <= -1.05\ngini = 0.47\nsamples = 12\nvalue = [10, 6]", fillcolor="#f5cdb0"] ;
444 -> 446 ;
447 [label="visitstarttime <= -1.63\ngini = 0.41\nsamples = 11\nvalue = [10, 4]", fillcolor="#efb388"] ;
446 -> 447 ;
448 [label="hits <= 1.24\ngini = 0.38\nsamples = 3\nvalue = [1, 3]", fillcolor="#7bbeee"] ;
447 -> 448 ;
449 [label="gini = 0.0\nsamples = 2\nvalue = [0, 3]", fillcolor="#399de5"] ;
448 -> 449 ;
450 [label="gini = 0.0\nsamples = 1\nvalue = [1, 0]", fillcolor="#e58139"] ;
448 -> 450 ;
451 [label="visitstarttime <= -1.41\ngini = 0.18\nsamples = 8\nvalue = [9, 1]", fillcolor="#e88f4f"] ;
447 -> 451 ;
452 [label="operatingsystem_Chrome OS <= 2.44\ngini = 0.44\nsamples = 3\nvalue = [2, 1]", fillcolor="#f2c09c"] ;
451 -> 452 ;
453 [label="gini = 0.0\nsamples = 2\nvalue = [2, 0]", fillcolor="#e58139"] ;
452 -> 453 ;
454 [label="gini = 0.0\nsamples = 1\nvalue = [0, 1]", fillcolor="#399de5"] ;
452 -> 454 ;
455 [label="gini = 0.0\nsamples = 5\nvalue = [7, 0]", fillcolor="#e58139"] ;
451 -> 455 ;
456 [label="gini = 0.0\nsamples = 1\nvalue = [0, 2]", fillcolor="#399de5"] ;
446 -> 456 ;
457 [label="operatingsystem_Android <= 0.86\ngini = 0.07\nsamples = 36\nvalue = [55, 2]", fillcolor="#e68640"] ;
443 -> 457 ;
458 [label="operatingsystem_Windows <= 0.35\ngini = 0.09\nsamples = 25\nvalue = [38, 2]", fillcolor="#e68843"] ;
457 -> 458 ;
459 [label="hits <= 1.24\ngini = 0.11\nsamples = 21\nvalue = [31, 2]", fillcolor="#e78946"] ;
458 -> 459 ;
460 [label="gini = 0.0\nsamples = 12\nvalue = [20, 0]", fillcolor="#e58139"] ;
459 -> 460 ;
461 [label="operatingsystem_Linux <= 2.15\ngini = 0.26\nsamples = 9\nvalue = [11, 2]", fillcolor="#ea985d"] ;
459 -> 461 ;
462 [label="operatingsystem_Chrome OS <= 2.44\ngini = 0.3\nsamples = 8\nvalue = [9, 2]", fillcolor="#eb9d65"] ;
461 -> 462 ;
463 [label="hits <= 1.36\ngini = 0.35\nsamples = 6\nvalue = [7, 2]", fillcolor="#eca572"] ;
462 -> 463 ;
464 [label="visitid <= 0.38\ngini = 0.44\nsamples = 4\nvalue = [4, 2]", fillcolor="#f2c09c"] ;
463 -> 464 ;
465 [label="gini = 0.0\nsamples = 2\nvalue = [3, 0]", fillcolor="#e58139"] ;
464 -> 465 ;
466 [label="visitstarttime <= 0.78\ngini = 0.44\nsamples = 2\nvalue = [1, 2]", fillcolor="#9ccef2"] ;
464 -> 466 ;
467 [label="gini = 0.0\nsamples = 1\nvalue = [0, 2]", fillcolor="#399de5"] ;
466 -> 467 ;
468 [label="gini = 0.0\nsamples = 1\nvalue = [1, 0]", fillcolor="#e58139"] ;
466 -> 468 ;
469 [label="gini = 0.0\nsamples = 2\nvalue = [3, 0]", fillcolor="#e58139"] ;
463 -> 469 ;
470 [label="gini = 0.0\nsamples = 2\nvalue = [2, 0]", fillcolor="#e58139"] ;
462 -> 470 ;
471 [label="gini = 0.0\nsamples = 1\nvalue = [2, 0]", fillcolor="#e58139"] ;
461 -> 471 ;
472 [label="gini = 0.0\nsamples = 4\nvalue = [7, 0]", fillcolor="#e58139"] ;
458 -> 472 ;
473 [label="gini = 0.0\nsamples = 11\nvalue = [17, 0]", fillcolor="#e58139"] ;
457 -> 473 ;
474 [label="gini = 0.0\nsamples = 11\nvalue = [20, 0]", fillcolor="#e58139"] ;
408 -> 474 ;
475 [label="country_United States <= 0.06\ngini = 0.14\nsamples = 41\nvalue = [74, 6]", fillcolor="#e78b49"] ;
399 -> 475 ;
476 [label="gini = 0.0\nsamples = 2\nvalue = [3, 0]", fillcolor="#e58139"] ;
475 -> 476 ;
477 [label="operatingsystem_Macintosh <= 0.62\ngini = 0.14\nsamples = 39\nvalue = [71, 6]", fillcolor="#e78c4a"] ;
475 -> 477 ;
478 [label="operatingsystem_Windows <= 0.35\ngini = 0.09\nsamples = 31\nvalue = [60, 3]", fillcolor="#e68743"] ;
477 -> 478 ;
479 [label="gini = 0.0\nsamples = 21\nvalue = [42, 0]", fillcolor="#e58139"] ;
478 -> 479 ;
480 [label="visitstarttime <= 0.08\ngini = 0.24\nsamples = 10\nvalue = [18, 3]", fillcolor="#e9965a"] ;
478 -> 480 ;
481 [label="hits <= 1.11\ngini = 0.44\nsamples = 5\nvalue = [6, 3]", fillcolor="#f2c09c"] ;
480 -> 481 ;
482 [label="source_(direct) <= 0.21\ngini = 0.48\nsamples = 2\nvalue = [2, 3]", fillcolor="#bddef6"] ;
481 -> 482 ;
483 [label="gini = 0.0\nsamples = 1\nvalue = [2, 0]", fillcolor="#e58139"] ;
482 -> 483 ;
484 [label="gini = 0.0\nsamples = 1\nvalue = [0, 3]", fillcolor="#399de5"] ;
482 -> 484 ;
485 [label="gini = 0.0\nsamples = 3\nvalue = [4, 0]", fillcolor="#e58139"] ;
481 -> 485 ;
486 [label="gini = 0.0\nsamples = 5\nvalue = [12, 0]", fillcolor="#e58139"] ;
480 -> 486 ;
487 [label="visitid <= -0.28\ngini = 0.34\nsamples = 8\nvalue = [11, 3]", fillcolor="#eca36f"] ;
477 -> 487 ;
488 [label="gini = 0.0\nsamples = 5\nvalue = [9, 0]", fillcolor="#e58139"] ;
487 -> 488 ;
489 [label="hits <= 1.24\ngini = 0.48\nsamples = 3\nvalue = [2, 3]", fillcolor="#bddef6"] ;
487 -> 489 ;
490 [label="gini = 0.0\nsamples = 1\nvalue = [0, 3]", fillcolor="#399de5"] ;
489 -> 490 ;
491 [label="gini = 0.0\nsamples = 2\nvalue = [2, 0]", fillcolor="#e58139"] ;
489 -> 491 ;
492 [label="channelgrouping_Social <= 1.65\ngini = 0.26\nsamples = 39\nvalue = [59, 11]", fillcolor="#ea985e"] ;
2 -> 492 ;
493 [label="medium_(none) <= 0.21\ngini = 0.27\nsamples = 38\nvalue = [58, 11]", fillcolor="#ea995f"] ;
492 -> 493 ;
494 [label="operatingsystem_Windows <= 0.35\ngini = 0.35\nsamples = 17\nvalue = [24, 7]", fillcolor="#eda673"] ;
493 -> 494 ;
495 [label="operatingsystem_Android <= 0.86\ngini = 0.29\nsamples = 15\nvalue = [23, 5]", fillcolor="#eb9c64"] ;
494 -> 495 ;
496 [label="operatingsystem_iOS <= 0.91\ngini = 0.27\nsamples = 13\nvalue = [21, 4]", fillcolor="#ea995f"] ;
495 -> 496 ;
497 [label="visitnumber <= 0.16\ngini = 0.28\nsamples = 12\nvalue = [20, 4]", fillcolor="#ea9a61"] ;
496 -> 497 ;
498 [label="visitstarttime <= 0.92\ngini = 0.48\nsamples = 6\nvalue = [6, 4]", fillcolor="#f6d5bd"] ;
497 -> 498 ;
499 [label="gini = 0.0\nsamples = 1\nvalue = [2, 0]", fillcolor="#e58139"] ;
498 -> 499 ;
500 [label="visitnumber <= -0.0\ngini = 0.5\nsamples = 5\nvalue = [4, 4]", fillcolor="#ffffff"] ;
498 -> 500 ;
501 [label="visitstarttime <= 1.34\ngini = 0.32\nsamples = 3\nvalue = [4, 1]", fillcolor="#eca06a"] ;
500 -> 501 ;
502 [label="gini = 0.0\nsamples = 1\nvalue = [2, 0]", fillcolor="#e58139"] ;
501 -> 502 ;
503 [label="operatingsystem_Macintosh <= 0.62\ngini = 0.44\nsamples = 2\nvalue = [2, 1]", fillcolor="#f2c09c"] ;
501 -> 503 ;
504 [label="gini = 0.0\nsamples = 1\nvalue = [2, 0]", fillcolor="#e58139"] ;
503 -> 504 ;
505 [label="gini = 0.0\nsamples = 1\nvalue = [0, 1]", fillcolor="#399de5"] ;
503 -> 505 ;
506 [label="gini = 0.0\nsamples = 2\nvalue = [0, 3]", fillcolor="#399de5"] ;
500 -> 506 ;
507 [label="gini = 0.0\nsamples = 6\nvalue = [14, 0]", fillcolor="#e58139"] ;
497 -> 507 ;
508 [label="gini = 0.0\nsamples = 1\nvalue = [1, 0]", fillcolor="#e58139"] ;
496 -> 508 ;
509 [label="medium_cpc <= 2.98\ngini = 0.44\nsamples = 2\nvalue = [2, 1]", fillcolor="#f2c09c"] ;
495 -> 509 ;
510 [label="gini = 0.0\nsamples = 1\nvalue = [2, 0]", fillcolor="#e58139"] ;
509 -> 510 ;
511 [label="gini = 0.0\nsamples = 1\nvalue = [0, 1]", fillcolor="#399de5"] ;
509 -> 511 ;
512 [label="sessionqualitydim <= 5.12\ngini = 0.44\nsamples = 2\nvalue = [1, 2]", fillcolor="#9ccef2"] ;
494 -> 512 ;
513 [label="gini = 0.0\nsamples = 1\nvalue = [0, 2]", fillcolor="#399de5"] ;
512 -> 513 ;
514 [label="gini = 0.0\nsamples = 1\nvalue = [1, 0]", fillcolor="#e58139"] ;
512 -> 514 ;
515 [label="newvisits <= -0.58\ngini = 0.19\nsamples = 21\nvalue = [34, 4]", fillcolor="#e89050"] ;
493 -> 515 ;
516 [label="gini = 0.0\nsamples = 9\nvalue = [21, 0]", fillcolor="#e58139"] ;
515 -> 516 ;
517 [label="visitstarttime <= 1.56\ngini = 0.36\nsamples = 12\nvalue = [13, 4]", fillcolor="#eda876"] ;
515 -> 517 ;
518 [label="browser_Firefox <= 2.35\ngini = 0.24\nsamples = 9\nvalue = [12, 2]", fillcolor="#e9965a"] ;
517 -> 518 ;
519 [label="istruedirect <= 0.31\ngini = 0.26\nsamples = 8\nvalue = [11, 2]", fillcolor="#ea985d"] ;
518 -> 519 ;
520 [label="gini = 0.0\nsamples = 1\nvalue = [1, 0]", fillcolor="#e58139"] ;
519 -> 520 ;
521 [label="operatingsystem_iOS <= 0.91\ngini = 0.28\nsamples = 7\nvalue = [10, 2]", fillcolor="#ea9a61"] ;
519 -> 521 ;
522 [label="operatingsystem_Windows <= 0.35\ngini = 0.3\nsamples = 6\nvalue = [9, 2]", fillcolor="#eb9d65"] ;
521 -> 522 ;
523 [label="gini = 0.0\nsamples = 4\nvalue = [8, 0]", fillcolor="#e58139"] ;
522 -> 523 ;
524 [label="visitstarttime <= 1.39\ngini = 0.44\nsamples = 2\nvalue = [1, 2]", fillcolor="#9ccef2"] ;
522 -> 524 ;
525 [label="gini = 0.0\nsamples = 1\nvalue = [0, 2]", fillcolor="#399de5"] ;
524 -> 525 ;
526 [label="gini = 0.0\nsamples = 1\nvalue = [1, 0]", fillcolor="#e58139"] ;
524 -> 526 ;
527 [label="gini = 0.0\nsamples = 1\nvalue = [1, 0]", fillcolor="#e58139"] ;
521 -> 527 ;
528 [label="gini = 0.0\nsamples = 1\nvalue = [1, 0]", fillcolor="#e58139"] ;
518 -> 528 ;
529 [label="browser_Firefox <= 2.35\ngini = 0.44\nsamples = 3\nvalue = [1, 2]", fillcolor="#9ccef2"] ;
517 -> 529 ;
530 [label="gini = 0.0\nsamples = 2\nvalue = [0, 2]", fillcolor="#399de5"] ;
529 -> 530 ;
531 [label="gini = 0.0\nsamples = 1\nvalue = [1, 0]", fillcolor="#e58139"] ;
529 -> 531 ;
532 [label="gini = 0.0\nsamples = 1\nvalue = [1, 0]", fillcolor="#e58139"] ;
492 -> 532 ;
533 [label="subcontinent_Northern America <= -0.0\ngini = 0.24\nsamples = 1953\nvalue = [2664, 435]", fillcolor="#e99659"] ;
1 -> 533 ;
534 [label="pageviews <= 8.45\ngini = 0.04\nsamples = 706\nvalue = [1128, 25]", fillcolor="#e6843d"] ;
533 -> 534 ;
535 [label="medium_cpc <= 2.98\ngini = 0.03\nsamples = 695\nvalue = [1117, 15]", fillcolor="#e5833c"] ;
534 -> 535 ;
536 [label="visitid <= 1.65\ngini = 0.02\nsamples = 685\nvalue = [1107, 13]", fillcolor="#e5823b"] ;
535 -> 536 ;
537 [label="visitstarttime <= -0.94\ngini = 0.02\nsamples = 681\nvalue = [1100, 10]", fillcolor="#e5823b"] ;
536 -> 537 ;
538 [label="devicecategory_mobile <= 0.43\ngini = 0.04\nsamples = 212\nvalue = [346, 8]", fillcolor="#e6843e"] ;
537 -> 538 ;
539 [label="country_United Kingdom <= 2.02\ngini = 0.06\nsamples = 155\nvalue = [251, 8]", fillcolor="#e6853f"] ;
538 -> 539 ;
540 [label="visitid <= -0.94\ngini = 0.06\nsamples = 146\nvalue = [240, 7]", fillcolor="#e6853f"] ;
539 -> 540 ;
541 [label="continent_Americas <= -0.1\ngini = 0.03\nsamples = 145\nvalue = [240, 4]", fillcolor="#e5833c"] ;
540 -> 541 ;
542 [label="gini = 0.0\nsamples = 125\nvalue = [212, 0]", fillcolor="#e58139"] ;
541 -> 542 ;
543 [label="visitid <= -1.33\ngini = 0.22\nsamples = 20\nvalue = [28, 4]", fillcolor="#e99355"] ;
541 -> 543 ;
544 [label="country_Mexico <= 4.93\ngini = 0.46\nsamples = 7\nvalue = [7, 4]", fillcolor="#f4c9aa"] ;
543 -> 544 ;
545 [label="gini = 0.0\nsamples = 6\nvalue = [7, 0]", fillcolor="#e58139"] ;
544 -> 545 ;
546 [label="gini = 0.0\nsamples = 1\nvalue = [0, 4]", fillcolor="#399de5"] ;
544 -> 546 ;
547 [label="gini = 0.0\nsamples = 13\nvalue = [21, 0]", fillcolor="#e58139"] ;
543 -> 547 ;
548 [label="gini = 0.0\nsamples = 1\nvalue = [0, 3]", fillcolor="#399de5"] ;
540 -> 548 ;
549 [label="source_google <= 0.11\ngini = 0.15\nsamples = 9\nvalue = [11, 1]", fillcolor="#e78c4b"] ;
539 -> 549 ;
550 [label="gini = 0.0\nsamples = 3\nvalue = [5, 0]", fillcolor="#e58139"] ;
549 -> 550 ;
551 [label="pageviews <= 2.71\ngini = 0.24\nsamples = 6\nvalue = [6, 1]", fillcolor="#e9965a"] ;
549 -> 551 ;
552 [label="gini = 0.0\nsamples = 4\nvalue = [5, 0]", fillcolor="#e58139"] ;
551 -> 552 ;
553 [label="newvisits <= -0.58\ngini = 0.5\nsamples = 2\nvalue = [1, 1]", fillcolor="#ffffff"] ;
551 -> 553 ;
554 [label="gini = 0.0\nsamples = 1\nvalue = [0, 1]", fillcolor="#399de5"] ;
553 -> 554 ;
555 [label="gini = 0.0\nsamples = 1\nvalue = [1, 0]", fillcolor="#e58139"] ;
553 -> 555 ;
556 [label="gini = 0.0\nsamples = 57\nvalue = [95, 0]", fillcolor="#e58139"] ;
538 -> 556 ;
557 [label="country_Ukraine <= 7.73\ngini = 0.01\nsamples = 469\nvalue = [754, 2]", fillcolor="#e5813a"] ;
537 -> 557 ;
558 [label="devicecategory_mobile <= 0.43\ngini = 0.0\nsamples = 463\nvalue = [744, 1]", fillcolor="#e58139"] ;
557 -> 558 ;
559 [label="gini = 0.0\nsamples = 335\nvalue = [537, 0]", fillcolor="#e58139"] ;
558 -> 559 ;
560 [label="source_google <= 0.11\ngini = 0.01\nsamples = 128\nvalue = [207, 1]", fillcolor="#e5823a"] ;
558 -> 560 ;
561 [label="gini = 0.0\nsamples = 63\nvalue = [97, 0]", fillcolor="#e58139"] ;
560 -> 561 ;
562 [label="hits <= 2.59\ngini = 0.02\nsamples = 65\nvalue = [110, 1]", fillcolor="#e5823b"] ;
560 -> 562 ;
563 [label="gini = 0.0\nsamples = 44\nvalue = [80, 0]", fillcolor="#e58139"] ;
562 -> 563 ;
564 [label="browser_Chrome <= -0.48\ngini = 0.06\nsamples = 21\nvalue = [30, 1]", fillcolor="#e68540"] ;
562 -> 564 ;
565 [label="gini = 0.0\nsamples = 7\nvalue = [10, 0]", fillcolor="#e58139"] ;
564 -> 565 ;
566 [label="operatingsystem_iOS <= 0.91\ngini = 0.09\nsamples = 14\nvalue = [20, 1]", fillcolor="#e68743"] ;
564 -> 566 ;
567 [label="subcontinent_Southeast Asia <= 2.26\ngini = 0.1\nsamples = 12\nvalue = [17, 1]", fillcolor="#e78845"] ;
566 -> 567 ;
568 [label="gini = 0.0\nsamples = 11\nvalue = [17, 0]", fillcolor="#e58139"] ;
567 -> 568 ;
569 [label="gini = 0.0\nsamples = 1\nvalue = [0, 1]", fillcolor="#399de5"] ;
567 -> 569 ;
570 [label="gini = 0.0\nsamples = 2\nvalue = [3, 0]", fillcolor="#e58139"] ;
566 -> 570 ;
571 [label="operatingsystem_Macintosh <= 0.62\ngini = 0.17\nsamples = 6\nvalue = [10, 1]", fillcolor="#e88e4d"] ;
557 -> 571 ;
572 [label="gini = 0.0\nsamples = 5\nvalue = [10, 0]", fillcolor="#e58139"] ;
571 -> 572 ;
573 [label="gini = 0.0\nsamples = 1\nvalue = [0, 1]", fillcolor="#399de5"] ;
571 -> 573 ;
574 [label="continent_Oceania <= 3.36\ngini = 0.42\nsamples = 4\nvalue = [7, 3]", fillcolor="#f0b78e"] ;
536 -> 574 ;
575 [label="visitnumber <= -0.09\ngini = 0.47\nsamples = 3\nvalue = [5, 3]", fillcolor="#f5cdb0"] ;
574 -> 575 ;
576 [label="devicecategory_desktop <= -0.33\ngini = 0.49\nsamples = 2\nvalue = [4, 3]", fillcolor="#f8e0ce"] ;
575 -> 576 ;
577 [label="gini = 0.0\nsamples = 1\nvalue = [0, 3]", fillcolor="#399de5"] ;
576 -> 577 ;
578 [label="gini = 0.0\nsamples = 1\nvalue = [4, 0]", fillcolor="#e58139"] ;
576 -> 578 ;
579 [label="gini = 0.0\nsamples = 1\nvalue = [1, 0]", fillcolor="#e58139"] ;
575 -> 579 ;
580 [label="gini = 0.0\nsamples = 1\nvalue = [2, 0]", fillcolor="#e58139"] ;
574 -> 580 ;
581 [label="country_Poland <= 5.47\ngini = 0.28\nsamples = 10\nvalue = [10, 2]", fillcolor="#ea9a61"] ;
535 -> 581 ;
582 [label="gini = 0.0\nsamples = 9\nvalue = [10, 0]", fillcolor="#e58139"] ;
581 -> 582 ;
583 [label="gini = 0.0\nsamples = 1\nvalue = [0, 2]", fillcolor="#399de5"] ;
581 -> 583 ;
584 [label="channelgrouping_Direct <= 0.78\ngini = 0.5\nsamples = 11\nvalue = [11, 10]", fillcolor="#fdf4ed"] ;
534 -> 584 ;
585 [label="browser_Firefox <= 2.35\ngini = 0.46\nsamples = 6\nvalue = [4, 7]", fillcolor="#aad5f4"] ;
584 -> 585 ;
586 [label="visitid <= -1.04\ngini = 0.42\nsamples = 5\nvalue = [3, 7]", fillcolor="#8ec7f0"] ;
585 -> 586 ;
587 [label="gini = 0.0\nsamples = 2\nvalue = [2, 0]", fillcolor="#e58139"] ;
586 -> 587 ;
588 [label="subcontinent_South America <= 2.54\ngini = 0.22\nsamples = 3\nvalue = [1, 7]", fillcolor="#55abe9"] ;
586 -> 588 ;
589 [label="sessionqualitydim <= 0.46\ngini = 0.44\nsamples = 2\nvalue = [1, 2]", fillcolor="#9ccef2"] ;
588 -> 589 ;
590 [label="gini = 0.0\nsamples = 1\nvalue = [0, 2]", fillcolor="#399de5"] ;
589 -> 590 ;
591 [label="gini = 0.0\nsamples = 1\nvalue = [1, 0]", fillcolor="#e58139"] ;
589 -> 591 ;
592 [label="gini = 0.0\nsamples = 1\nvalue = [0, 5]", fillcolor="#399de5"] ;
588 -> 592 ;
593 [label="gini = 0.0\nsamples = 1\nvalue = [1, 0]", fillcolor="#e58139"] ;
585 -> 593 ;
594 [label="hits <= 14.25\ngini = 0.42\nsamples = 5\nvalue = [7, 3]", fillcolor="#f0b78e"] ;
584 -> 594 ;
595 [label="country_Japan <= 3.03\ngini = 0.5\nsamples = 4\nvalue = [3, 3]", fillcolor="#ffffff"] ;
594 -> 595 ;
596 [label="gini = 0.0\nsamples = 2\nvalue = [0, 2]", fillcolor="#399de5"] ;
595 -> 596 ;
597 [label="newvisits <= -0.58\ngini = 0.38\nsamples = 2\nvalue = [3, 1]", fillcolor="#eeab7b"] ;
595 -> 597 ;
598 [label="gini = 0.0\nsamples = 1\nvalue = [0, 1]", fillcolor="#399de5"] ;
597 -> 598 ;
599 [label="gini = 0.0\nsamples = 1\nvalue = [3, 0]", fillcolor="#e58139"] ;
597 -> 599 ;
600 [label="gini = 0.0\nsamples = 1\nvalue = [4, 0]", fillcolor="#e58139"] ;
594 -> 600 ;
601 [label="sessionqualitydim <= 9.22\ngini = 0.33\nsamples = 1247\nvalue = [1536, 410]", fillcolor="#eca36e"] ;
533 -> 601 ;
602 [label="istruedirect <= 0.31\ngini = 0.31\nsamples = 1195\nvalue = [1510, 367]", fillcolor="#eba069"] ;
601 -> 602 ;
603 [label="devicecategory_mobile <= 0.43\ngini = 0.24\nsamples = 691\nvalue = [954, 159]", fillcolor="#e9965a"] ;
602 -> 603 ;
604 [label="source_t.co <= 10.34\ngini = 0.28\nsamples = 499\nvalue = [669, 132]", fillcolor="#ea9a60"] ;
603 -> 604 ;
605 [label="visitstarttime <= -1.74\ngini = 0.27\nsamples = 497\nvalue = [668, 130]", fillcolor="#ea9a60"] ;
604 -> 605 ;
606 [label="gini = 0.0\nsamples = 4\nvalue = [0, 10]", fillcolor="#399de5"] ;
605 -> 606 ;
607 [label="hits <= 2.95\ngini = 0.26\nsamples = 493\nvalue = [668, 120]", fillcolor="#ea985d"] ;
605 -> 607 ;
608 [label="visitstarttime <= -1.64\ngini = 0.19\nsamples = 300\nvalue = [426, 50]", fillcolor="#e89050"] ;
607 -> 608 ;
609 [label="pageviews <= 1.96\ngini = 0.42\nsamples = 13\nvalue = [12, 5]", fillcolor="#f0b58b"] ;
608 -> 609 ;
610 [label="gini = 0.0\nsamples = 7\nvalue = [9, 0]", fillcolor="#e58139"] ;
609 -> 610 ;
611 [label="newvisits <= -0.58\ngini = 0.47\nsamples = 6\nvalue = [3, 5]", fillcolor="#b0d8f5"] ;
609 -> 611 ;
612 [label="gini = 0.0\nsamples = 1\nvalue = [1, 0]", fillcolor="#e58139"] ;
611 -> 612 ;
613 [label="browser_Chrome <= -0.48\ngini = 0.41\nsamples = 5\nvalue = [2, 5]", fillcolor="#88c4ef"] ;
611 -> 613 ;
614 [label="gini = 0.0\nsamples = 1\nvalue = [0, 3]", fillcolor="#399de5"] ;
613 -> 614 ;
615 [label="pageviews <= 2.12\ngini = 0.5\nsamples = 4\nvalue = [2, 2]", fillcolor="#ffffff"] ;
613 -> 615 ;
616 [label="gini = 0.0\nsamples = 1\nvalue = [0, 1]", fillcolor="#399de5"] ;
615 -> 616 ;
617 [label="pageviews <= 2.29\ngini = 0.44\nsamples = 3\nvalue = [2, 1]", fillcolor="#f2c09c"] ;
615 -> 617 ;
618 [label="gini = 0.0\nsamples = 1\nvalue = [1, 0]", fillcolor="#e58139"] ;
617 -> 618 ;
619 [label="operatingsystem_Windows <= 0.35\ngini = 0.5\nsamples = 2\nvalue = [1, 1]", fillcolor="#ffffff"] ;
617 -> 619 ;
620 [label="gini = 0.0\nsamples = 1\nvalue = [0, 1]", fillcolor="#399de5"] ;
619 -> 620 ;
621 [label="gini = 0.0\nsamples = 1\nvalue = [1, 0]", fillcolor="#e58139"] ;
619 -> 621 ;
622 [label="visitid <= -1.58\ngini = 0.18\nsamples = 287\nvalue = [414, 45]", fillcolor="#e88f4f"] ;
608 -> 622 ;
623 [label="gini = 0.0\nsamples = 14\nvalue = [20, 0]", fillcolor="#e58139"] ;
622 -> 623 ;
624 [label="hits <= 2.71\ngini = 0.18\nsamples = 273\nvalue = [394, 45]", fillcolor="#e88f50"] ;
622 -> 624 ;
625 [label="country_United States <= 0.06\ngini = 0.18\nsamples = 237\nvalue = [350, 38]", fillcolor="#e88f4e"] ;
624 -> 625 ;
626 [label="gini = 0.0\nsamples = 24\nvalue = [47, 0]", fillcolor="#e58139"] ;
625 -> 626 ;
627 [label="channelgrouping_Organic Search <= -0.06\ngini = 0.2\nsamples = 213\nvalue = [303, 38]", fillcolor="#e89152"] ;
625 -> 627 ;
628 [label="devicecategory_desktop <= -0.33\ngini = 0.15\nsamples = 51\nvalue = [70, 6]", fillcolor="#e78c4a"] ;
627 -> 628 ;
629 [label="sessionqualitydim <= -0.05\ngini = 0.26\nsamples = 9\nvalue = [11, 2]", fillcolor="#ea985d"] ;
628 -> 629 ;
630 [label="source_(direct) <= 0.21\ngini = 0.38\nsamples = 5\nvalue = [6, 2]", fillcolor="#eeab7b"] ;
629 -> 630 ;
631 [label="visitid <= -1.15\ngini = 0.44\nsamples = 4\nvalue = [4, 2]", fillcolor="#f2c09c"] ;
630 -> 631 ;
632 [label="gini = 0.0\nsamples = 1\nvalue = [0, 2]", fillcolor="#399de5"] ;
631 -> 632 ;
633 [label="gini = 0.0\nsamples = 3\nvalue = [4, 0]", fillcolor="#e58139"] ;
631 -> 633 ;
634 [label="gini = 0.0\nsamples = 1\nvalue = [2, 0]", fillcolor="#e58139"] ;
630 -> 634 ;
635 [label="gini = 0.0\nsamples = 4\nvalue = [5, 0]", fillcolor="#e58139"] ;
629 -> 635 ;
636 [label="pageviews <= 3.37\ngini = 0.12\nsamples = 42\nvalue = [59, 4]", fillcolor="#e78a46"] ;
628 -> 636 ;
637 [label="browser_Safari <= 0.86\ngini = 0.09\nsamples = 41\nvalue = [59, 3]", fillcolor="#e68743"] ;
636 -> 637 ;
638 [label="medium_referral <= 1.16\ngini = 0.1\nsamples = 38\nvalue = [55, 3]", fillcolor="#e68844"] ;
637 -> 638 ;
639 [label="source_dfa <= 7.27\ngini = 0.07\nsamples = 35\nvalue = [52, 2]", fillcolor="#e68641"] ;
638 -> 639 ;
640 [label="operatingsystem_Macintosh <= 0.62\ngini = 0.08\nsamples = 32\nvalue = [46, 2]", fillcolor="#e68642"] ;
639 -> 640 ;
641 [label="hits <= 2.09\ngini = 0.06\nsamples = 23\nvalue = [34, 1]", fillcolor="#e6853f"] ;
640 -> 641 ;
642 [label="medium_(none) <= 0.21\ngini = 0.09\nsamples = 11\nvalue = [19, 1]", fillcolor="#e68843"] ;
641 -> 642 ;
643 [label="gini = 0.0\nsamples = 9\nvalue = [18, 0]", fillcolor="#e58139"] ;
642 -> 643 ;
644 [label="operatingsystem_Windows <= 0.35\ngini = 0.5\nsamples = 2\nvalue = [1, 1]", fillcolor="#ffffff"] ;
642 -> 644 ;
645 [label="gini = 0.0\nsamples = 1\nvalue = [0, 1]", fillcolor="#399de5"] ;
644 -> 645 ;
646 [label="gini = 0.0\nsamples = 1\nvalue = [1, 0]", fillcolor="#e58139"] ;
644 -> 646 ;
647 [label="gini = 0.0\nsamples = 12\nvalue = [15, 0]", fillcolor="#e58139"] ;
641 -> 647 ;
648 [label="medium_cpc <= 2.98\ngini = 0.14\nsamples = 9\nvalue = [12, 1]", fillcolor="#e78c49"] ;
640 -> 648 ;
649 [label="gini = 0.0\nsamples = 2\nvalue = [3, 0]", fillcolor="#e58139"] ;
648 -> 649 ;
650 [label="pageviews <= 1.79\ngini = 0.18\nsamples = 7\nvalue = [9, 1]", fillcolor="#e88f4f"] ;
648 -> 650 ;
651 [label="gini = 0.0\nsamples = 3\nvalue = [5, 0]", fillcolor="#e58139"] ;
650 -> 651 ;
652 [label="visitid <= 0.99\ngini = 0.32\nsamples = 4\nvalue = [4, 1]", fillcolor="#eca06a"] ;
650 -> 652 ;
653 [label="gini = 0.0\nsamples = 3\nvalue = [4, 0]", fillcolor="#e58139"] ;
652 -> 653 ;
654 [label="gini = 0.0\nsamples = 1\nvalue = [0, 1]", fillcolor="#399de5"] ;
652 -> 654 ;
655 [label="gini = 0.0\nsamples = 3\nvalue = [6, 0]", fillcolor="#e58139"] ;
639 -> 655 ;
656 [label="source_youtube.com <= 2.08\ngini = 0.38\nsamples = 3\nvalue = [3, 1]", fillcolor="#eeab7b"] ;
638 -> 656 ;
657 [label="pageviews <= 2.37\ngini = 0.5\nsamples = 2\nvalue = [1, 1]", fillcolor="#ffffff"] ;
656 -> 657 ;
658 [label="gini = 0.0\nsamples = 1\nvalue = [1, 0]", fillcolor="#e58139"] ;
657 -> 658 ;
659 [label="gini = 0.0\nsamples = 1\nvalue = [0, 1]", fillcolor="#399de5"] ;
657 -> 659 ;
660 [label="gini = 0.0\nsamples = 1\nvalue = [2, 0]", fillcolor="#e58139"] ;
656 -> 660 ;
661 [label="gini = 0.0\nsamples = 3\nvalue = [4, 0]", fillcolor="#e58139"] ;
637 -> 661 ;
662 [label="gini = 0.0\nsamples = 1\nvalue = [0, 1]", fillcolor="#399de5"] ;
636 -> 662 ;
663 [label="operatingsystem_Windows <= 0.35\ngini = 0.21\nsamples = 162\nvalue = [233, 32]", fillcolor="#e99254"] ;
627 -> 663 ;
664 [label="visitid <= -0.92\ngini = 0.18\nsamples = 99\nvalue = [145, 16]", fillcolor="#e88f4f"] ;
663 -> 664 ;
665 [label="operatingsystem_Android <= 0.86\ngini = 0.34\nsamples = 21\nvalue = [25, 7]", fillcolor="#eca470"] ;
664 -> 665 ;
666 [label="operatingsystem_iOS <= 0.91\ngini = 0.35\nsamples = 20\nvalue = [24, 7]", fillcolor="#eda673"] ;
665 -> 666 ;
667 [label="operatingsystem_Chrome OS <= 2.44\ngini = 0.39\nsamples = 18\nvalue = [19, 7]", fillcolor="#efaf82"] ;
666 -> 667 ;
668 [label="browser_Safari <= 0.86\ngini = 0.38\nsamples = 16\nvalue = [18, 6]", fillcolor="#eeab7b"] ;
667 -> 668 ;
669 [label="visitstarttime <= -0.92\ngini = 0.42\nsamples = 13\nvalue = [14, 6]", fillcolor="#f0b78e"] ;
668 -> 669 ;
670 [label="operatingsystem_Linux <= 2.15\ngini = 0.35\nsamples = 12\nvalue = [14, 4]", fillcolor="#eca572"] ;
669 -> 670 ;
671 [label="visitstarttime <= -1.29\ngini = 0.23\nsamples = 10\nvalue = [13, 2]", fillcolor="#e99457"] ;
670 -> 671 ;
672 [label="gini = 0.0\nsamples = 5\nvalue = [7, 0]", fillcolor="#e58139"] ;
671 -> 672 ;
673 [label="visitstarttime <= -1.2\ngini = 0.38\nsamples = 5\nvalue = [6, 2]", fillcolor="#eeab7b"] ;
671 -> 673 ;
674 [label="gini = 0.0\nsamples = 1\nvalue = [0, 2]", fillcolor="#399de5"] ;
673 -> 674 ;
675 [label="gini = 0.0\nsamples = 4\nvalue = [6, 0]", fillcolor="#e58139"] ;
673 -> 675 ;
676 [label="pageviews <= 2.12\ngini = 0.44\nsamples = 2\nvalue = [1, 2]", fillcolor="#9ccef2"] ;
670 -> 676 ;
677 [label="gini = 0.0\nsamples = 1\nvalue = [1, 0]", fillcolor="#e58139"] ;
676 -> 677 ;
678 [label="gini = 0.0\nsamples = 1\nvalue = [0, 2]", fillcolor="#399de5"] ;
676 -> 678 ;
679 [label="gini = 0.0\nsamples = 1\nvalue = [0, 2]", fillcolor="#399de5"] ;
669 -> 679 ;
680 [label="gini = 0.0\nsamples = 3\nvalue = [4, 0]", fillcolor="#e58139"] ;
668 -> 680 ;
681 [label="visitid <= -1.45\ngini = 0.5\nsamples = 2\nvalue = [1, 1]", fillcolor="#ffffff"] ;
667 -> 681 ;
682 [label="gini = 0.0\nsamples = 1\nvalue = [0, 1]", fillcolor="#399de5"] ;
681 -> 682 ;
683 [label="gini = 0.0\nsamples = 1\nvalue = [1, 0]", fillcolor="#e58139"] ;
681 -> 683 ;
684 [label="gini = 0.0\nsamples = 2\nvalue = [5, 0]", fillcolor="#e58139"] ;
666 -> 684 ;
685 [label="gini = 0.0\nsamples = 1\nvalue = [1, 0]", fillcolor="#e58139"] ;
665 -> 685 ;
686 [label="visitid <= 0.09\ngini = 0.13\nsamples = 78\nvalue = [120, 9]", fillcolor="#e78a48"] ;
664 -> 686 ;
687 [label="visitstarttime <= -0.6\ngini = 0.04\nsamples = 30\nvalue = [48, 1]", fillcolor="#e6843d"] ;
686 -> 687 ;
688 [label="source_google <= 0.11\ngini = 0.1\nsamples = 14\nvalue = [18, 1]", fillcolor="#e68844"] ;
687 -> 688 ;
689 [label="gini = 0.0\nsamples = 1\nvalue = [3, 0]", fillcolor="#e58139"] ;
688 -> 689 ;
690 [label="visitnumber <= -0.09\ngini = 0.12\nsamples = 13\nvalue = [15, 1]", fillcolor="#e78946"] ;
688 -> 690 ;
691 [label="gini = 0.0\nsamples = 12\nvalue = [15, 0]", fillcolor="#e58139"] ;
690 -> 691 ;
692 [label="gini = 0.0\nsamples = 1\nvalue = [0, 1]", fillcolor="#399de5"] ;
690 -> 692 ;
693 [label="gini = 0.0\nsamples = 16\nvalue = [30, 0]", fillcolor="#e58139"] ;
687 -> 693 ;
694 [label="operatingsystem_Linux <= 2.15\ngini = 0.18\nsamples = 48\nvalue = [72, 8]", fillcolor="#e88f4f"] ;
686 -> 694 ;
695 [label="medium_(none) <= 0.21\ngini = 0.16\nsamples = 47\nvalue = [72, 7]", fillcolor="#e88d4c"] ;
694 -> 695 ;
696 [label="hits <= 1.85\ngini = 0.19\nsamples = 34\nvalue = [51, 6]", fillcolor="#e89050"] ;
695 -> 696 ;
697 [label="gini = 0.0\nsamples = 12\nvalue = [19, 0]", fillcolor="#e58139"] ;
696 -> 697 ;
698 [label="visitstarttime <= 0.29\ngini = 0.27\nsamples = 22\nvalue = [32, 6]", fillcolor="#ea995e"] ;
696 -> 698 ;
699 [label="gini = 0.0\nsamples = 1\nvalue = [0, 2]", fillcolor="#399de5"] ;
698 -> 699 ;
700 [label="visitnumber <= -0.09\ngini = 0.2\nsamples = 21\nvalue = [32, 4]", fillcolor="#e89152"] ;
698 -> 700 ;
701 [label="pageviews <= 2.62\ngini = 0.2\nsamples = 20\nvalue = [31, 4]", fillcolor="#e89153"] ;
700 -> 701 ;
702 [label="browser_Chrome <= -0.48\ngini = 0.07\nsamples = 16\nvalue = [28, 1]", fillcolor="#e68640"] ;
701 -> 702 ;
703 [label="gini = 0.0\nsamples = 4\nvalue = [9, 0]", fillcolor="#e58139"] ;
702 -> 703 ;
704 [label="sessionqualitydim <= 4.29\ngini = 0.09\nsamples = 12\nvalue = [19, 1]", fillcolor="#e68843"] ;
702 -> 704 ;
705 [label="pageviews <= 2.29\ngini = 0.24\nsamples = 5\nvalue = [6, 1]", fillcolor="#e9965a"] ;
704 -> 705 ;
706 [label="operatingsystem_Chrome OS <= 2.44\ngini = 0.38\nsamples = 3\nvalue = [3, 1]", fillcolor="#eeab7b"] ;
705 -> 706 ;
707 [label="hits <= 2.16\ngini = 0.5\nsamples = 2\nvalue = [1, 1]", fillcolor="#ffffff"] ;
706 -> 707 ;
708 [label="gini = 0.0\nsamples = 1\nvalue = [1, 0]", fillcolor="#e58139"] ;
707 -> 708 ;
709 [label="gini = 0.0\nsamples = 1\nvalue = [0, 1]", fillcolor="#399de5"] ;
707 -> 709 ;
710 [label="gini = 0.0\nsamples = 1\nvalue = [2, 0]", fillcolor="#e58139"] ;
706 -> 710 ;
711 [label="gini = 0.0\nsamples = 2\nvalue = [3, 0]", fillcolor="#e58139"] ;
705 -> 711 ;
712 [label="gini = 0.0\nsamples = 7\nvalue = [13, 0]", fillcolor="#e58139"] ;
704 -> 712 ;
713 [label="operatingsystem_Macintosh <= 0.62\ngini = 0.5\nsamples = 4\nvalue = [3, 3]", fillcolor="#ffffff"] ;
701 -> 713 ;
714 [label="visitid <= 0.71\ngini = 0.44\nsamples = 2\nvalue = [2, 1]", fillcolor="#f2c09c"] ;
713 -> 714 ;
715 [label="gini = 0.0\nsamples = 1\nvalue = [2, 0]", fillcolor="#e58139"] ;
714 -> 715 ;
716 [label="gini = 0.0\nsamples = 1\nvalue = [0, 1]", fillcolor="#399de5"] ;
714 -> 716 ;
717 [label="visitstarttime <= 1.54\ngini = 0.44\nsamples = 2\nvalue = [1, 2]", fillcolor="#9ccef2"] ;
713 -> 717 ;
718 [label="gini = 0.0\nsamples = 1\nvalue = [0, 2]", fillcolor="#399de5"] ;
717 -> 718 ;
719 [label="gini = 0.0\nsamples = 1\nvalue = [1, 0]", fillcolor="#e58139"] ;
717 -> 719 ;
720 [label="gini = 0.0\nsamples = 1\nvalue = [1, 0]", fillcolor="#e58139"] ;
700 -> 720 ;
721 [label="operatingsystem_Macintosh <= 0.62\ngini = 0.09\nsamples = 13\nvalue = [21, 1]", fillcolor="#e68742"] ;
695 -> 721 ;
722 [label="gini = 0.0\nsamples = 4\nvalue = [7, 0]", fillcolor="#e58139"] ;
721 -> 722 ;
723 [label="browser_Chrome <= -0.48\ngini = 0.12\nsamples = 9\nvalue = [14, 1]", fillcolor="#e78a47"] ;
721 -> 723 ;
724 [label="gini = 0.0\nsamples = 1\nvalue = [2, 0]", fillcolor="#e58139"] ;
723 -> 724 ;
725 [label="visitstarttime <= 0.19\ngini = 0.14\nsamples = 8\nvalue = [12, 1]", fillcolor="#e78c49"] ;
723 -> 725 ;
726 [label="visitid <= 0.18\ngini = 0.38\nsamples = 2\nvalue = [3, 1]", fillcolor="#eeab7b"] ;
725 -> 726 ;
727 [label="gini = 0.0\nsamples = 1\nvalue = [3, 0]", fillcolor="#e58139"] ;
726 -> 727 ;
728 [label="gini = 0.0\nsamples = 1\nvalue = [0, 1]", fillcolor="#399de5"] ;
726 -> 728 ;
729 [label="gini = 0.0\nsamples = 6\nvalue = [9, 0]", fillcolor="#e58139"] ;
725 -> 729 ;
730 [label="gini = 0.0\nsamples = 1\nvalue = [0, 1]", fillcolor="#399de5"] ;
694 -> 730 ;
731 [label="pageviews <= 2.79\ngini = 0.26\nsamples = 63\nvalue = [88, 16]", fillcolor="#ea985d"] ;
663 -> 731 ;
732 [label="browser_Chrome <= -0.48\ngini = 0.18\nsamples = 54\nvalue = [82, 9]", fillcolor="#e88f4f"] ;
731 -> 732 ;
733 [label="gini = 0.0\nsamples = 8\nvalue = [12, 0]", fillcolor="#e58139"] ;
732 -> 733 ;
734 [label="source_(direct) <= 0.21\ngini = 0.2\nsamples = 46\nvalue = [70, 9]", fillcolor="#e89152"] ;
732 -> 734 ;
735 [label="visitstarttime <= -1.58\ngini = 0.26\nsamples = 34\nvalue = [49, 9]", fillcolor="#ea985d"] ;
734 -> 735 ;
736 [label="gini = 0.0\nsamples = 1\nvalue = [0, 3]", fillcolor="#399de5"] ;
735 -> 736 ;
737 [label="newvisits <= -0.58\ngini = 0.19\nsamples = 33\nvalue = [49, 6]", fillcolor="#e89051"] ;
735 -> 737 ;
738 [label="visitid <= -0.25\ngini = 0.44\nsamples = 3\nvalue = [2, 1]", fillcolor="#f2c09c"] ;
737 -> 738 ;
739 [label="gini = 0.0\nsamples = 2\nvalue = [2, 0]", fillcolor="#e58139"] ;
738 -> 739 ;
740 [label="gini = 0.0\nsamples = 1\nvalue = [0, 1]", fillcolor="#399de5"] ;
738 -> 740 ;
741 [label="sessionqualitydim <= 5.38\ngini = 0.17\nsamples = 30\nvalue = [47, 5]", fillcolor="#e88e4e"] ;
737 -> 741 ;
742 [label="hits <= 1.6\ngini = 0.11\nsamples = 29\nvalue = [47, 3]", fillcolor="#e78946"] ;
741 -> 742 ;
743 [label="gini = 0.0\nsamples = 1\nvalue = [0, 2]", fillcolor="#399de5"] ;
742 -> 743 ;
744 [label="visitstarttime <= -0.77\ngini = 0.04\nsamples = 28\nvalue = [47, 1]", fillcolor="#e6843d"] ;
742 -> 744 ;
745 [label="pageviews <= 2.29\ngini = 0.1\nsamples = 11\nvalue = [17, 1]", fillcolor="#e78845"] ;
744 -> 745 ;
746 [label="gini = 0.0\nsamples = 9\nvalue = [15, 0]", fillcolor="#e58139"] ;
745 -> 746 ;
747 [label="visitid <= -1.03\ngini = 0.44\nsamples = 2\nvalue = [2, 1]", fillcolor="#f2c09c"] ;
745 -> 747 ;
748 [label="gini = 0.0\nsamples = 1\nvalue = [2, 0]", fillcolor="#e58139"] ;
747 -> 748 ;
749 [label="gini = 0.0\nsamples = 1\nvalue = [0, 1]", fillcolor="#399de5"] ;
747 -> 749 ;
750 [label="gini = 0.0\nsamples = 17\nvalue = [30, 0]", fillcolor="#e58139"] ;
744 -> 750 ;
751 [label="gini = 0.0\nsamples = 1\nvalue = [0, 2]", fillcolor="#399de5"] ;
741 -> 751 ;
752 [label="gini = 0.0\nsamples = 12\nvalue = [21, 0]", fillcolor="#e58139"] ;
734 -> 752 ;
753 [label="browser_Edge <= 4.59\ngini = 0.5\nsamples = 9\nvalue = [6, 7]", fillcolor="#e3f1fb"] ;
731 -> 753 ;
754 [label="visitid <= 0.29\ngini = 0.48\nsamples = 7\nvalue = [4, 6]", fillcolor="#bddef6"] ;
753 -> 754 ;
755 [label="visitnumber <= -0.09\ngini = 0.44\nsamples = 5\nvalue = [4, 2]", fillcolor="#f2c09c"] ;
754 -> 755 ;
756 [label="hits <= 2.4\ngini = 0.48\nsamples = 4\nvalue = [3, 2]", fillcolor="#f6d5bd"] ;
755 -> 756 ;
757 [label="visitid <= -0.05\ngini = 0.44\nsamples = 2\nvalue = [1, 2]", fillcolor="#9ccef2"] ;
756 -> 757 ;
758 [label="gini = 0.0\nsamples = 1\nvalue = [0, 2]", fillcolor="#399de5"] ;
757 -> 758 ;
759 [label="gini = 0.0\nsamples = 1\nvalue = [1, 0]", fillcolor="#e58139"] ;
757 -> 759 ;
760 [label="gini = 0.0\nsamples = 2\nvalue = [2, 0]", fillcolor="#e58139"] ;
756 -> 760 ;
761 [label="gini = 0.0\nsamples = 1\nvalue = [1, 0]", fillcolor="#e58139"] ;
755 -> 761 ;
762 [label="gini = 0.0\nsamples = 2\nvalue = [0, 4]", fillcolor="#399de5"] ;
754 -> 762 ;
763 [label="sessionqualitydim <= 1.61\ngini = 0.44\nsamples = 2\nvalue = [2, 1]", fillcolor="#f2c09c"] ;
753 -> 763 ;
764 [label="gini = 0.0\nsamples = 1\nvalue = [2, 0]", fillcolor="#e58139"] ;
763 -> 764 ;
765 [label="gini = 0.0\nsamples = 1\nvalue = [0, 1]", fillcolor="#399de5"] ;
763 -> 765 ;
766 [label="sessionqualitydim <= 3.78\ngini = 0.24\nsamples = 36\nvalue = [44, 7]", fillcolor="#e99558"] ;
624 -> 766 ;
767 [label="operatingsystem_Chrome OS <= 2.44\ngini = 0.09\nsamples = 28\nvalue = [38, 2]", fillcolor="#e68843"] ;
766 -> 767 ;
768 [label="visitid <= -0.22\ngini = 0.06\nsamples = 24\nvalue = [33, 1]", fillcolor="#e6853f"] ;
767 -> 768 ;
769 [label="medium_(none) <= 0.21\ngini = 0.12\nsamples = 12\nvalue = [15, 1]", fillcolor="#e78946"] ;
768 -> 769 ;
770 [label="gini = 0.0\nsamples = 9\nvalue = [11, 0]", fillcolor="#e58139"] ;
769 -> 770 ;
771 [label="channelgrouping_Paid Search <= 2.5\ngini = 0.32\nsamples = 3\nvalue = [4, 1]", fillcolor="#eca06a"] ;
769 -> 771 ;
772 [label="visitid <= -0.32\ngini = 0.5\nsamples = 2\nvalue = [1, 1]", fillcolor="#ffffff"] ;
771 -> 772 ;
773 [label="gini = 0.0\nsamples = 1\nvalue = [1, 0]", fillcolor="#e58139"] ;
772 -> 773 ;
774 [label="gini = 0.0\nsamples = 1\nvalue = [0, 1]", fillcolor="#399de5"] ;
772 -> 774 ;
775 [label="gini = 0.0\nsamples = 1\nvalue = [3, 0]", fillcolor="#e58139"] ;
771 -> 775 ;
776 [label="gini = 0.0\nsamples = 12\nvalue = [18, 0]", fillcolor="#e58139"] ;
768 -> 776 ;
777 [label="visitnumber <= -0.05\ngini = 0.28\nsamples = 4\nvalue = [5, 1]", fillcolor="#ea9a61"] ;
767 -> 777 ;
778 [label="gini = 0.0\nsamples = 3\nvalue = [5, 0]", fillcolor="#e58139"] ;
777 -> 778 ;
779 [label="gini = 0.0\nsamples = 1\nvalue = [0, 1]", fillcolor="#399de5"] ;
777 -> 779 ;
780 [label="operatingsystem_Linux <= 2.15\ngini = 0.5\nsamples = 8\nvalue = [6, 5]", fillcolor="#fbeade"] ;
766 -> 780 ;
781 [label="source_google <= 0.11\ngini = 0.38\nsamples = 7\nvalue = [6, 2]", fillcolor="#eeab7b"] ;
780 -> 781 ;
782 [label="gini = 0.0\nsamples = 1\nvalue = [0, 1]", fillcolor="#399de5"] ;
781 -> 782 ;
783 [label="hits <= 2.83\ngini = 0.24\nsamples = 6\nvalue = [6, 1]", fillcolor="#e9965a"] ;
781 -> 783 ;
784 [label="visitstarttime <= 1.53\ngini = 0.44\nsamples = 3\nvalue = [2, 1]", fillcolor="#f2c09c"] ;
783 -> 784 ;
785 [label="gini = 0.0\nsamples = 2\nvalue = [2, 0]", fillcolor="#e58139"] ;
784 -> 785 ;
786 [label="gini = 0.0\nsamples = 1\nvalue = [0, 1]", fillcolor="#399de5"] ;
784 -> 786 ;
787 [label="gini = 0.0\nsamples = 3\nvalue = [4, 0]", fillcolor="#e58139"] ;
783 -> 787 ;
788 [label="gini = 0.0\nsamples = 1\nvalue = [0, 3]", fillcolor="#399de5"] ;
780 -> 788 ;
789 [label="operatingsystem_Chrome OS <= 2.44\ngini = 0.35\nsamples = 193\nvalue = [242, 70]", fillcolor="#eda572"] ;
607 -> 789 ;
790 [label="medium_referral <= 1.16\ngini = 0.35\nsamples = 176\nvalue = [219, 65]", fillcolor="#eda674"] ;
789 -> 790 ;
791 [label="country_Canada <= 2.66\ngini = 0.36\nsamples = 170\nvalue = [207, 65]", fillcolor="#eda977"] ;
790 -> 791 ;
792 [label="hits <= 8.48\ngini = 0.39\nsamples = 150\nvalue = [175, 65]", fillcolor="#efb083"] ;
791 -> 792 ;
793 [label="hits <= 7.43\ngini = 0.41\nsamples = 140\nvalue = [159, 63]", fillcolor="#efb387"] ;
792 -> 793 ;
794 [label="pageviews <= 4.12\ngini = 0.4\nsamples = 135\nvalue = [157, 59]", fillcolor="#efb083"] ;
793 -> 794 ;
795 [label="visitid <= -1.66\ngini = 0.29\nsamples = 75\nvalue = [96, 20]", fillcolor="#ea9b62"] ;
794 -> 795 ;
796 [label="gini = 0.0\nsamples = 2\nvalue = [0, 2]", fillcolor="#399de5"] ;
795 -> 796 ;
797 [label="pageviews <= 3.46\ngini = 0.27\nsamples = 73\nvalue = [96, 18]", fillcolor="#ea995e"] ;
795 -> 797 ;
798 [label="visitid <= -1.58\ngini = 0.08\nsamples = 34\nvalue = [46, 2]", fillcolor="#e68642"] ;
797 -> 798 ;
799 [label="pageviews <= 2.79\ngini = 0.5\nsamples = 2\nvalue = [1, 1]", fillcolor="#ffffff"] ;
798 -> 799 ;
800 [label="gini = 0.0\nsamples = 1\nvalue = [0, 1]", fillcolor="#399de5"] ;
799 -> 800 ;
801 [label="gini = 0.0\nsamples = 1\nvalue = [1, 0]", fillcolor="#e58139"] ;
799 -> 801 ;
802 [label="operatingsystem_iOS <= 0.91\ngini = 0.04\nsamples = 32\nvalue = [45, 1]", fillcolor="#e6843d"] ;
798 -> 802 ;
803 [label="visitid <= 0.86\ngini = 0.04\nsamples = 31\nvalue = [43, 1]", fillcolor="#e6843e"] ;
802 -> 803 ;
804 [label="gini = 0.0\nsamples = 19\nvalue = [29, 0]", fillcolor="#e58139"] ;
803 -> 804 ;
805 [label="visitstarttime <= 0.95\ngini = 0.12\nsamples = 12\nvalue = [14, 1]", fillcolor="#e78a47"] ;
803 -> 805 ;
806 [label="gini = 0.0\nsamples = 1\nvalue = [0, 1]", fillcolor="#399de5"] ;
805 -> 806 ;
807 [label="gini = 0.0\nsamples = 11\nvalue = [14, 0]", fillcolor="#e58139"] ;
805 -> 807 ;
808 [label="gini = 0.0\nsamples = 1\nvalue = [2, 0]", fillcolor="#e58139"] ;
802 -> 808 ;
809 [label="channelgrouping_Organic Search <= -0.06\ngini = 0.37\nsamples = 39\nvalue = [50, 16]", fillcolor="#eda978"] ;
797 -> 809 ;
810 [label="source_Partners <= 3.26\ngini = 0.5\nsamples = 6\nvalue = [6, 5]", fillcolor="#fbeade"] ;
809 -> 810 ;
811 [label="operatingsystem_Macintosh <= 0.62\ngini = 0.5\nsamples = 5\nvalue = [5, 5]", fillcolor="#ffffff"] ;
810 -> 811 ;
812 [label="newvisits <= -0.58\ngini = 0.48\nsamples = 3\nvalue = [3, 2]", fillcolor="#f6d5bd"] ;
811 -> 812 ;
813 [label="gini = 0.0\nsamples = 1\nvalue = [3, 0]", fillcolor="#e58139"] ;
812 -> 813 ;
814 [label="gini = 0.0\nsamples = 2\nvalue = [0, 2]", fillcolor="#399de5"] ;
812 -> 814 ;
815 [label="pageviews <= 3.79\ngini = 0.48\nsamples = 2\nvalue = [2, 3]", fillcolor="#bddef6"] ;
811 -> 815 ;
816 [label="gini = 0.0\nsamples = 1\nvalue = [0, 3]", fillcolor="#399de5"] ;
815 -> 816 ;
817 [label="gini = 0.0\nsamples = 1\nvalue = [2, 0]", fillcolor="#e58139"] ;
815 -> 817 ;
818 [label="gini = 0.0\nsamples = 1\nvalue = [1, 0]", fillcolor="#e58139"] ;
810 -> 818 ;
819 [label="browser_Edge <= 4.59\ngini = 0.32\nsamples = 33\nvalue = [44, 11]", fillcolor="#eca06a"] ;
809 -> 819 ;
820 [label="medium_organic <= 0.15\ngini = 0.3\nsamples = 32\nvalue = [44, 10]", fillcolor="#eb9e66"] ;
819 -> 820 ;
821 [label="browser_Chrome <= -0.48\ngini = 0.44\nsamples = 7\nvalue = [8, 4]", fillcolor="#f2c09c"] ;
820 -> 821 ;
822 [label="gini = 0.0\nsamples = 1\nvalue = [0, 3]", fillcolor="#399de5"] ;
821 -> 822 ;
823 [label="visitid <= -0.38\ngini = 0.2\nsamples = 6\nvalue = [8, 1]", fillcolor="#e89152"] ;
821 -> 823 ;
824 [label="gini = 0.0\nsamples = 1\nvalue = [0, 1]", fillcolor="#399de5"] ;
823 -> 824 ;
825 [label="gini = 0.0\nsamples = 5\nvalue = [8, 0]", fillcolor="#e58139"] ;
823 -> 825 ;
826 [label="browser_Firefox <= 2.35\ngini = 0.24\nsamples = 25\nvalue = [36, 6]", fillcolor="#e9965a"] ;
820 -> 826 ;
827 [label="visitstarttime <= 1.51\ngini = 0.26\nsamples = 24\nvalue = [34, 6]", fillcolor="#ea975c"] ;
826 -> 827 ;
828 [label="hits <= 3.57\ngini = 0.2\nsamples = 22\nvalue = [31, 4]", fillcolor="#e89153"] ;
827 -> 828 ;
829 [label="sessionqualitydim <= 3.4\ngini = 0.5\nsamples = 4\nvalue = [3, 3]", fillcolor="#ffffff"] ;
828 -> 829 ;
830 [label="hits <= 3.44\ngini = 0.48\nsamples = 3\nvalue = [2, 3]", fillcolor="#bddef6"] ;
829 -> 830 ;
831 [label="operatingsystem_Windows <= 0.35\ngini = 0.5\nsamples = 2\nvalue = [2, 2]", fillcolor="#ffffff"] ;
830 -> 831 ;
832 [label="gini = 0.0\nsamples = 1\nvalue = [0, 2]", fillcolor="#399de5"] ;
831 -> 832 ;
833 [label="gini = 0.0\nsamples = 1\nvalue = [2, 0]", fillcolor="#e58139"] ;
831 -> 833 ;
834 [label="gini = 0.0\nsamples = 1\nvalue = [0, 1]", fillcolor="#399de5"] ;
830 -> 834 ;
835 [label="gini = 0.0\nsamples = 1\nvalue = [1, 0]", fillcolor="#e58139"] ;
829 -> 835 ;
836 [label="operatingsystem_Windows <= 0.35\ngini = 0.07\nsamples = 18\nvalue = [28, 1]", fillcolor="#e68640"] ;
828 -> 836 ;
837 [label="visitnumber <= 0.04\ngini = 0.11\nsamples = 10\nvalue = [16, 1]", fillcolor="#e78945"] ;
836 -> 837 ;
838 [label="gini = 0.0\nsamples = 8\nvalue = [13, 0]", fillcolor="#e58139"] ;
837 -> 838 ;
839 [label="visitid <= -0.0\ngini = 0.38\nsamples = 2\nvalue = [3, 1]", fillcolor="#eeab7b"] ;
837 -> 839 ;
840 [label="gini = 0.0\nsamples = 1\nvalue = [3, 0]", fillcolor="#e58139"] ;
839 -> 840 ;
841 [label="gini = 0.0\nsamples = 1\nvalue = [0, 1]", fillcolor="#399de5"] ;
839 -> 841 ;
842 [label="gini = 0.0\nsamples = 8\nvalue = [12, 0]", fillcolor="#e58139"] ;
836 -> 842 ;
843 [label="operatingsystem_Windows <= 0.35\ngini = 0.48\nsamples = 2\nvalue = [3, 2]", fillcolor="#f6d5bd"] ;
827 -> 843 ;
844 [label="gini = 0.0\nsamples = 1\nvalue = [3, 0]", fillcolor="#e58139"] ;
843 -> 844 ;
845 [label="gini = 0.0\nsamples = 1\nvalue = [0, 2]", fillcolor="#399de5"] ;
843 -> 845 ;
846 [label="gini = 0.0\nsamples = 1\nvalue = [2, 0]", fillcolor="#e58139"] ;
826 -> 846 ;
847 [label="gini = 0.0\nsamples = 1\nvalue = [0, 1]", fillcolor="#399de5"] ;
819 -> 847 ;
848 [label="pageviews <= 5.45\ngini = 0.48\nsamples = 60\nvalue = [61, 39]", fillcolor="#f6d2b8"] ;
794 -> 848 ;
849 [label="visitstarttime <= -1.2\ngini = 0.5\nsamples = 37\nvalue = [32, 29]", fillcolor="#fdf3ec"] ;
848 -> 849 ;
850 [label="gini = 0.0\nsamples = 5\nvalue = [10, 0]", fillcolor="#e58139"] ;
849 -> 850 ;
851 [label="source_google <= 0.11\ngini = 0.49\nsamples = 32\nvalue = [22, 29]", fillcolor="#cfe7f9"] ;
849 -> 851 ;
852 [label="browser_Safari <= 0.86\ngini = 0.49\nsamples = 9\nvalue = [8, 6]", fillcolor="#f8e0ce"] ;
851 -> 852 ;
853 [label="visitnumber <= -0.09\ngini = 0.5\nsamples = 8\nvalue = [7, 6]", fillcolor="#fbede3"] ;
852 -> 853 ;
854 [label="channelgrouping_Organic Search <= -0.06\ngini = 0.5\nsamples = 7\nvalue = [5, 6]", fillcolor="#deeffb"] ;
853 -> 854 ;
855 [label="gini = 0.0\nsamples = 1\nvalue = [1, 0]", fillcolor="#e58139"] ;
854 -> 855 ;
856 [label="operatingsystem_Windows <= 0.35\ngini = 0.48\nsamples = 6\nvalue = [4, 6]", fillcolor="#bddef6"] ;
854 -> 856 ;
857 [label="gini = 0.0\nsamples = 1\nvalue = [0, 2]", fillcolor="#399de5"] ;
856 -> 857 ;
858 [label="pageviews <= 4.7\ngini = 0.5\nsamples = 5\nvalue = [4, 4]", fillcolor="#ffffff"] ;
856 -> 858 ;
859 [label="pageviews <= 4.45\ngini = 0.44\nsamples = 3\nvalue = [2, 4]", fillcolor="#9ccef2"] ;
858 -> 859 ;
860 [label="gini = 0.0\nsamples = 1\nvalue = [1, 0]", fillcolor="#e58139"] ;
859 -> 860 ;
861 [label="sessionqualitydim <= 3.21\ngini = 0.32\nsamples = 2\nvalue = [1, 4]", fillcolor="#6ab6ec"] ;
859 -> 861 ;
862 [label="gini = 0.0\nsamples = 1\nvalue = [0, 4]", fillcolor="#399de5"] ;
861 -> 862 ;
863 [label="gini = 0.0\nsamples = 1\nvalue = [1, 0]", fillcolor="#e58139"] ;
861 -> 863 ;
864 [label="gini = 0.0\nsamples = 2\nvalue = [2, 0]", fillcolor="#e58139"] ;
858 -> 864 ;
865 [label="gini = 0.0\nsamples = 1\nvalue = [2, 0]", fillcolor="#e58139"] ;
853 -> 865 ;
866 [label="gini = 0.0\nsamples = 1\nvalue = [1, 0]", fillcolor="#e58139"] ;
852 -> 866 ;
867 [label="operatingsystem_Windows <= 0.35\ngini = 0.47\nsamples = 23\nvalue = [14, 23]", fillcolor="#b2d9f5"] ;
851 -> 867 ;
868 [label="hits <= 4.55\ngini = 0.3\nsamples = 12\nvalue = [4, 18]", fillcolor="#65b3eb"] ;
867 -> 868 ;
869 [label="hits <= 3.75\ngini = 0.4\nsamples = 6\nvalue = [3, 8]", fillcolor="#83c2ef"] ;
868 -> 869 ;
870 [label="operatingsystem_Macintosh <= 0.62\ngini = 0.28\nsamples = 3\nvalue = [1, 5]", fillcolor="#61b1ea"] ;
869 -> 870 ;
871 [label="gini = 0.0\nsamples = 1\nvalue = [0, 4]", fillcolor="#399de5"] ;
870 -> 871 ;
872 [label="sessionqualitydim <= 7.11\ngini = 0.5\nsamples = 2\nvalue = [1, 1]", fillcolor="#ffffff"] ;
870 -> 872 ;
873 [label="gini = 0.0\nsamples = 1\nvalue = [1, 0]", fillcolor="#e58139"] ;
872 -> 873 ;
874 [label="gini = 0.0\nsamples = 1\nvalue = [0, 1]", fillcolor="#399de5"] ;
872 -> 874 ;
875 [label="devicecategory_desktop <= -0.33\ngini = 0.48\nsamples = 3\nvalue = [2, 3]", fillcolor="#bddef6"] ;
869 -> 875 ;
876 [label="gini = 0.0\nsamples = 1\nvalue = [1, 0]", fillcolor="#e58139"] ;
875 -> 876 ;
877 [label="hits <= 4.24\ngini = 0.38\nsamples = 2\nvalue = [1, 3]", fillcolor="#7bbeee"] ;
875 -> 877 ;
878 [label="gini = 0.0\nsamples = 1\nvalue = [1, 0]", fillcolor="#e58139"] ;
877 -> 878 ;
879 [label="gini = 0.0\nsamples = 1\nvalue = [0, 3]", fillcolor="#399de5"] ;
877 -> 879 ;
880 [label="browser_Safari <= 0.86\ngini = 0.17\nsamples = 6\nvalue = [1, 10]", fillcolor="#4da7e8"] ;
868 -> 880 ;
881 [label="gini = 0.0\nsamples = 4\nvalue = [0, 8]", fillcolor="#399de5"] ;
880 -> 881 ;
882 [label="medium_cpc <= 2.98\ngini = 0.44\nsamples = 2\nvalue = [1, 2]", fillcolor="#9ccef2"] ;
880 -> 882 ;
883 [label="gini = 0.0\nsamples = 1\nvalue = [1, 0]", fillcolor="#e58139"] ;
882 -> 883 ;
884 [label="gini = 0.0\nsamples = 1\nvalue = [0, 2]", fillcolor="#399de5"] ;
882 -> 884 ;
885 [label="visitnumber <= -0.09\ngini = 0.44\nsamples = 11\nvalue = [10, 5]", fillcolor="#f2c09c"] ;
867 -> 885 ;
886 [label="hits <= 4.43\ngini = 0.47\nsamples = 10\nvalue = [8, 5]", fillcolor="#f5d0b5"] ;
885 -> 886 ;
887 [label="browser_Firefox <= 2.35\ngini = 0.47\nsamples = 6\nvalue = [3, 5]", fillcolor="#b0d8f5"] ;
886 -> 887 ;
888 [label="visitstarttime <= 0.96\ngini = 0.44\nsamples = 4\nvalue = [2, 4]", fillcolor="#9ccef2"] ;
887 -> 888 ;
889 [label="gini = 0.0\nsamples = 2\nvalue = [0, 3]", fillcolor="#399de5"] ;
888 -> 889 ;
890 [label="visitstarttime <= 1.29\ngini = 0.44\nsamples = 2\nvalue = [2, 1]", fillcolor="#f2c09c"] ;
888 -> 890 ;
891 [label="gini = 0.0\nsamples = 1\nvalue = [2, 0]", fillcolor="#e58139"] ;
890 -> 891 ;
892 [label="gini = 0.0\nsamples = 1\nvalue = [0, 1]", fillcolor="#399de5"] ;
890 -> 892 ;
893 [label="hits <= 4.06\ngini = 0.5\nsamples = 2\nvalue = [1, 1]", fillcolor="#ffffff"] ;
887 -> 893 ;
894 [label="gini = 0.0\nsamples = 1\nvalue = [1, 0]", fillcolor="#e58139"] ;
893 -> 894 ;
895 [label="gini = 0.0\nsamples = 1\nvalue = [0, 1]", fillcolor="#399de5"] ;
893 -> 895 ;
896 [label="gini = 0.0\nsamples = 4\nvalue = [5, 0]", fillcolor="#e58139"] ;
886 -> 896 ;
897 [label="gini = 0.0\nsamples = 1\nvalue = [2, 0]", fillcolor="#e58139"] ;
885 -> 897 ;
898 [label="visitstarttime <= 0.38\ngini = 0.38\nsamples = 23\nvalue = [29, 10]", fillcolor="#eeac7d"] ;
848 -> 898 ;
899 [label="operatingsystem_Macintosh <= 0.62\ngini = 0.26\nsamples = 16\nvalue = [22, 4]", fillcolor="#ea985d"] ;
898 -> 899 ;
900 [label="hits <= 5.35\ngini = 0.17\nsamples = 8\nvalue = [10, 1]", fillcolor="#e88e4d"] ;
899 -> 900 ;
901 [label="pageviews <= 5.95\ngini = 0.44\nsamples = 3\nvalue = [2, 1]", fillcolor="#f2c09c"] ;
900 -> 901 ;
902 [label="gini = 0.0\nsamples = 2\nvalue = [2, 0]", fillcolor="#e58139"] ;
901 -> 902 ;
903 [label="gini = 0.0\nsamples = 1\nvalue = [0, 1]", fillcolor="#399de5"] ;
901 -> 903 ;
904 [label="gini = 0.0\nsamples = 5\nvalue = [8, 0]", fillcolor="#e58139"] ;
900 -> 904 ;
905 [label="browser_Chrome <= -0.48\ngini = 0.32\nsamples = 8\nvalue = [12, 3]", fillcolor="#eca06a"] ;
899 -> 905 ;
906 [label="gini = 0.0\nsamples = 1\nvalue = [0, 1]", fillcolor="#399de5"] ;
905 -> 906 ;
907 [label="hits <= 6.64\ngini = 0.24\nsamples = 7\nvalue = [12, 2]", fillcolor="#e9965a"] ;
905 -> 907 ;
908 [label="gini = 0.0\nsamples = 5\nvalue = [10, 0]", fillcolor="#e58139"] ;
907 -> 908 ;
909 [label="newvisits <= -0.58\ngini = 0.5\nsamples = 2\nvalue = [2, 2]", fillcolor="#ffffff"] ;
907 -> 909 ;
910 [label="gini = 0.0\nsamples = 1\nvalue = [2, 0]", fillcolor="#e58139"] ;
909 -> 910 ;
911 [label="gini = 0.0\nsamples = 1\nvalue = [0, 2]", fillcolor="#399de5"] ;
909 -> 911 ;
912 [label="visitnumber <= -0.09\ngini = 0.5\nsamples = 7\nvalue = [7, 6]", fillcolor="#fbede3"] ;
898 -> 912 ;
913 [label="visitid <= 1.53\ngini = 0.49\nsamples = 6\nvalue = [7, 5]", fillcolor="#f8dbc6"] ;
912 -> 913 ;
914 [label="sessionqualitydim <= 7.3\ngini = 0.41\nsamples = 4\nvalue = [2, 5]", fillcolor="#88c4ef"] ;
913 -> 914 ;
915 [label="channelgrouping_Paid Search <= 2.5\ngini = 0.28\nsamples = 3\nvalue = [1, 5]", fillcolor="#61b1ea"] ;
914 -> 915 ;
916 [label="gini = 0.0\nsamples = 2\nvalue = [0, 5]", fillcolor="#399de5"] ;
915 -> 916 ;
917 [label="gini = 0.0\nsamples = 1\nvalue = [1, 0]", fillcolor="#e58139"] ;
915 -> 917 ;
918 [label="gini = 0.0\nsamples = 1\nvalue = [1, 0]", fillcolor="#e58139"] ;
914 -> 918 ;
919 [label="gini = 0.0\nsamples = 2\nvalue = [5, 0]", fillcolor="#e58139"] ;
913 -> 919 ;
920 [label="gini = 0.0\nsamples = 1\nvalue = [0, 1]", fillcolor="#399de5"] ;
912 -> 920 ;
921 [label="medium_organic <= 0.15\ngini = 0.44\nsamples = 5\nvalue = [2, 4]", fillcolor="#9ccef2"] ;
793 -> 921 ;
922 [label="browser_Chrome <= -0.48\ngini = 0.44\nsamples = 3\nvalue = [2, 1]", fillcolor="#f2c09c"] ;
921 -> 922 ;
923 [label="gini = 0.0\nsamples = 1\nvalue = [1, 0]", fillcolor="#e58139"] ;
922 -> 923 ;
924 [label="channelgrouping_Paid Search <= 2.5\ngini = 0.5\nsamples = 2\nvalue = [1, 1]", fillcolor="#ffffff"] ;
922 -> 924 ;
925 [label="gini = 0.0\nsamples = 1\nvalue = [1, 0]", fillcolor="#e58139"] ;
924 -> 925 ;
926 [label="gini = 0.0\nsamples = 1\nvalue = [0, 1]", fillcolor="#399de5"] ;
924 -> 926 ;
927 [label="gini = 0.0\nsamples = 2\nvalue = [0, 3]", fillcolor="#399de5"] ;
921 -> 927 ;
928 [label="pageviews <= 8.28\ngini = 0.2\nsamples = 10\nvalue = [16, 2]", fillcolor="#e89152"] ;
792 -> 928 ;
929 [label="source_dfa <= 7.27\ngini = 0.44\nsamples = 2\nvalue = [2, 1]", fillcolor="#f2c09c"] ;
928 -> 929 ;
930 [label="gini = 0.0\nsamples = 1\nvalue = [2, 0]", fillcolor="#e58139"] ;
929 -> 930 ;
931 [label="gini = 0.0\nsamples = 1\nvalue = [0, 1]", fillcolor="#399de5"] ;
929 -> 931 ;
932 [label="pageviews <= 11.36\ngini = 0.12\nsamples = 8\nvalue = [14, 1]", fillcolor="#e78a47"] ;
928 -> 932 ;
933 [label="gini = 0.0\nsamples = 5\nvalue = [10, 0]", fillcolor="#e58139"] ;
932 -> 933 ;
934 [label="operatingsystem_Macintosh <= 0.62\ngini = 0.32\nsamples = 3\nvalue = [4, 1]", fillcolor="#eca06a"] ;
932 -> 934 ;
935 [label="gini = 0.0\nsamples = 2\nvalue = [4, 0]", fillcolor="#e58139"] ;
934 -> 935 ;
936 [label="gini = 0.0\nsamples = 1\nvalue = [0, 1]", fillcolor="#399de5"] ;
934 -> 936 ;
937 [label="gini = 0.0\nsamples = 20\nvalue = [32, 0]", fillcolor="#e58139"] ;
791 -> 937 ;
938 [label="gini = 0.0\nsamples = 6\nvalue = [12, 0]", fillcolor="#e58139"] ;
790 -> 938 ;
939 [label="medium_(none) <= 0.21\ngini = 0.29\nsamples = 17\nvalue = [23, 5]", fillcolor="#eb9c64"] ;
789 -> 939 ;
940 [label="pageviews <= 4.29\ngini = 0.33\nsamples = 13\nvalue = [19, 5]", fillcolor="#eca26d"] ;
939 -> 940 ;
941 [label="medium_referral <= 1.16\ngini = 0.46\nsamples = 8\nvalue = [9, 5]", fillcolor="#f3c7a7"] ;
940 -> 941 ;
942 [label="visitstarttime <= 0.77\ngini = 0.49\nsamples = 7\nvalue = [7, 5]", fillcolor="#f8dbc6"] ;
941 -> 942 ;
943 [label="medium_organic <= 0.15\ngini = 0.35\nsamples = 6\nvalue = [7, 2]", fillcolor="#eca572"] ;
942 -> 943 ;
944 [label="gini = 0.0\nsamples = 1\nvalue = [1, 0]", fillcolor="#e58139"] ;
943 -> 944 ;
945 [label="visitstarttime <= -0.44\ngini = 0.38\nsamples = 5\nvalue = [6, 2]", fillcolor="#eeab7b"] ;
943 -> 945 ;
946 [label="pageviews <= 3.12\ngini = 0.5\nsamples = 3\nvalue = [2, 2]", fillcolor="#ffffff"] ;
945 -> 946 ;
947 [label="gini = 0.0\nsamples = 2\nvalue = [2, 0]", fillcolor="#e58139"] ;
946 -> 947 ;
948 [label="gini = 0.0\nsamples = 1\nvalue = [0, 2]", fillcolor="#399de5"] ;
946 -> 948 ;
949 [label="gini = 0.0\nsamples = 2\nvalue = [4, 0]", fillcolor="#e58139"] ;
945 -> 949 ;
950 [label="gini = 0.0\nsamples = 1\nvalue = [0, 3]", fillcolor="#399de5"] ;
942 -> 950 ;
951 [label="gini = 0.0\nsamples = 1\nvalue = [2, 0]", fillcolor="#e58139"] ;
941 -> 951 ;
952 [label="gini = 0.0\nsamples = 5\nvalue = [10, 0]", fillcolor="#e58139"] ;
940 -> 952 ;
953 [label="gini = 0.0\nsamples = 4\nvalue = [4, 0]", fillcolor="#e58139"] ;
939 -> 953 ;
954 [label="hits <= 4.3\ngini = 0.44\nsamples = 2\nvalue = [1, 2]", fillcolor="#9ccef2"] ;
604 -> 954 ;
955 [label="gini = 0.0\nsamples = 1\nvalue = [1, 0]", fillcolor="#e58139"] ;
954 -> 955 ;
956 [label="gini = 0.0\nsamples = 1\nvalue = [0, 2]", fillcolor="#399de5"] ;
954 -> 956 ;
957 [label="visitnumber <= -0.0\ngini = 0.16\nsamples = 192\nvalue = [285, 27]", fillcolor="#e78d4c"] ;
603 -> 957 ;
958 [label="channelgrouping_Social <= 1.65\ngini = 0.17\nsamples = 184\nvalue = [268, 27]", fillcolor="#e88e4d"] ;
957 -> 958 ;
959 [label="medium_affiliate <= 3.26\ngini = 0.17\nsamples = 177\nvalue = [260, 27]", fillcolor="#e88e4e"] ;
958 -> 959 ;
960 [label="source_(direct) <= 0.21\ngini = 0.17\nsamples = 176\nvalue = [259, 27]", fillcolor="#e88e4e"] ;
959 -> 960 ;
961 [label="source_google <= 0.11\ngini = 0.16\nsamples = 147\nvalue = [225, 21]", fillcolor="#e78d4b"] ;
960 -> 961 ;
962 [label="visitid <= -0.96\ngini = 0.28\nsamples = 3\nvalue = [5, 1]", fillcolor="#ea9a61"] ;
961 -> 962 ;
963 [label="gini = 0.0\nsamples = 1\nvalue = [0, 1]", fillcolor="#399de5"] ;
